tree
version=v2
num_class=1
num_tree_per_iteration=1
label_index=0
max_feature_idx=80
objective=regression
feature_names=Id MSSubClass MSZoning LotFrontage LotArea Street Alley LotShape LandContour Utilities LotConfig LandSlope Neighborhood Condition1 Condition2 BldgType HouseStyle OverallQual OverallCond YearBuilt YearRemodAdd RoofStyle RoofMatl Exterior1st Exterior2nd MasVnrType MasVnrArea ExterQual ExterCond Foundation BsmtQual BsmtCond BsmtExposure BsmtFinType1 BsmtFinSF1 BsmtFinType2 BsmtFinSF2 BsmtUnfSF TotalBsmtSF Heating HeatingQC CentralAir Electrical 1stFlrSF 2ndFlrSF LowQualFinSF GrLivArea BsmtFullBath BsmtHalfBath FullBath HalfBath BedroomAbvGr KitchenAbvGr KitchenQual TotRmsAbvGrd Functional Fireplaces FireplaceQu GarageType GarageYrBlt GarageFinish GarageCars GarageArea GarageQual GarageCond PavedDrive WoodDeckSF OpenPorchSF EnclosedPorch 3SsnPorch ScreenPorch PoolArea PoolQC Fence MiscFeature MiscVal MoSold YrSold SaleType SaleCondition HasPool
feature_infos=[1:1460] [20:190] [0:4] [21:313] [1300:215245] none [-1:1] [0:3] [0:3] none [0:4] [0:2] [0:24] [0:7] none [0:4] [0:7] [1:10] [3:9] [1872:2010] [1950:2010] [0:5] [0:7] [0:12] [0:15] [-1:3] [0:1600] [2:5] [1:5] [0:5] [0:5] [0:4] [-1:3] [-1:5] [0:5644] [-1:5] [0:1474] [0:2336] [0:6110] [0:3] [1:5] [0:1] [-1:4] [334:4692] [0:2065] [0:572] [334:5642] [0:3] [0:2] [0:3] [0:2] [0:8] [0:3] [2:5] [2:14] [0:6] [0:3] [0:5] [-1:5] [1900:2010] [-1:2] [0:4] [0:1418] [0:5] [0:5] [0:2] [0:857] [0:547] [0:552] [0:508] [0:480] none none [-1:3] [-1:3] [0:15500] [1:12] [2006:2010] [0:8] [0:5] none
tree_sizes=2417 2498 2495 2499 2503 2508 2499 2517 2510 2530 2525 2530 2531 2553 2548 2557 2556 2588 2568 2581 2576 2586 2602 2592 2605 2596 2592 2615 2594 2604 2613 2602 2609 2621 2627 2612 2628 2631 2622 2629 2635 2624 2636 2625 2636 2646 2628 2633 2649 2632 2655 2626 2637 2634 2636 2678 2650 2633 2635 2636 2651 2639 2648 2639 2637 2654 2655 2624 2623 2660 2650 2649 2639 2644 2669 2658 2649 2651 2658 2653 2648 2654 2651 2652 2639 2669 2669 2647 2640 2674 2666 2670 2660 2678 2677 2679 2673 2681 2682 2672

Tree=0
num_leaves=31
num_cat=0
split_feature=17 17 46 41 38 17 61 46 17 52 46 38 62 38 34 17 58 43 38 46 2 46 4 19 18 43 34 30 34 37
split_gain=107.453 17.6964 17.5845 10.2885 5.56941 4.98801 3.71585 3.63145 2.34962 2.2094 2.15133 1.80593 1.54813 1.40053 1.2779 1.13858 1.0317 0.951566 0.911105 0.862147 0.837052 0.77051 0.714552 0.689565 0.645224 0.590297 0.574342 0.502994 0.477824 0.403288
threshold=6.5000000000000009 7.5000000000000009 1375.5000000000002 1.0000000180025095e-35 1006.5000000000001 8.5000000000000018 1.5000000000000002 1822.0000000000002 4.5000000000000009 1.5000000000000002 1922.5000000000002 1467.0000000000002 419.00000000000006 1415.0000000000002 151.00000000000003 4.5000000000000009 1.0000000180025095e-35 1463.0000000000002 970.50000000000011 2015.5000000000002 1.0000000180025095e-35 1807.5000000000002 5962.5000000000009 1958.5000000000002 6.5000000000000009 1148.5000000000002 624.50000000000011 3.5000000000000004 427.50000000000006 654.00000000000011
decision_type=2 2 2 2 2 2 2 2 2 2 2 2 2 2 2 2 2 2 2 2 2 2 2 2 2 2 2 2 2 2
left_child=2 7 3 4 8 10 14 11 22 21 13 16 20 -3 -4 -5 -2 -12 -9 -7 29 26 -1 -6 -23 -25 27 -8 -15 -10
right_child=1 5 6 15 23 19 9 18 12 -11 17 -13 -14 28 -16 -17 -18 -19 -20 -21 -22 24 -24 25 -26 -27 -28 -29 -30 -31
leaf_value=11.957860573287475 12.036547129443115 12.044729055895484 11.994456654266999 11.939796965814208 12.000031789058575 12.091409887894345 12.015408511360238 12.047561479813796 11.994896277557777 12.003186204930131 12.074490626990396 12.056182414224532 12.003016954743561 12.060694107232495 12.016819364691701 11.967680687398731 12.018882241679453 12.09747434282956 12.06671456617096 12.115344928581445 11.975289287595345 12.032879495105519 11.979422213995678 12.00770284190976 12.054825665656447 12.020788880841028 12.036032239450666 12.029327679943403 12.078454915566185 11.979058811946786
leaf_count=22 133 33 56 32 47 27 47 41 82 33 43 38 99 28 47 27 44 31 63 34 44 37 51 71 21 67 51 58 33 20
internal_value=0 0.349978 -0.210294 -0.319874 -0.273535 0.562072 -0.0343386 0.197722 -0.353794 0.0321986 0.47314 0.123515 -0.306873 0.372736 -0.193899 -0.714936 0.0810497 0.600681 0.351129 0.806998 -0.372331 0.0693383 -0.511267 -0.135576 0.167746 -0.0999468 0.0327507 -0.00953691 0.462515 -0.3226
internal_count=1460 548 912 562 503 229 350 319 318 247 168 215 245 94 103 59 177 74 104 61 146 214 73 185 58 138 156 105 61 102
shrinkage=1


Tree=1
num_leaves=31
num_cat=0
split_feature=17 17 46 38 61 41 61 46 19 17 52 38 43 46 43 34 46 20 46 62 46 46 17 18 62 43 49 59 19 38
split_gain=87.037 14.334 14.2434 8.62187 4.28243 3.42918 3.00983 2.97069 2.39936 2.12028 1.78961 1.68932 1.53505 1.36823 1.10485 1.0351 1.01483 0.920971 0.884035 0.677627 0.649161 0.643182 0.634502 0.603046 0.571609 0.550897 0.498165 0.416454 0.411021 0.397217
threshold=6.5000000000000009 7.5000000000000009 1375.5000000000002 799.50000000000011 2.5000000000000004 1.0000000180025095e-35 1.5000000000000002 1945.5000000000002 1947.5000000000002 8.5000000000000018 1.5000000000000002 1471.5000000000002 1067.5000000000002 1137.5000000000002 1417.5000000000002 151.00000000000003 1010.0000000000001 1978.5000000000002 1970.5000000000002 405.50000000000006 2229.5000000000005 1633.0000000000002 4.5000000000000009 6.5000000000000009 499.50000000000006 768.50000000000011 1.5000000000000002 1967.5000000000002 1975.5000000000002 1191.0000000000002
decision_type=2 2 2 2 2 2 2 2 2 2 2 2 2 2 2 2 2 2 2 2 2 2 2 2 2 2 2 10 2 2
left_child=2 7 3 5 14 13 15 11 -5 18 21 17 27 22 24 -4 -7 -2 -6 -19 -11 -8 -1 28 -3 -21 -14 -10 -23 -9
right_child=1 4 6 8 9 16 10 29 12 20 -12 -13 26 -15 -16 -17 -18 19 -20 25 -22 23 -24 -25 -26 -27 -28 -29 -30 -31
leaf_value=-0.059649254594530382 -0.009504867961630227 0.01090181635634508 -0.026634807328809986 -0.040869240961702809 0.042505313213481465 -0.085323632540910146 0.00054926113626756928 0.028869937748021008 -0.028835491524844232 0.067711285860450179 -0.01877821235578846 0.030964056812226772 -0.013055038368288197 -0.027497986391341933 0.044968826893497918 -0.0065083681225703606 -0.055281665853478691 -0.0023820242589159359 0.063588903159708596 0.00076015427923546393 0.090314678405411547 0.00083056271477188509 -0.040778695107722772 0.024522311474989962 0.0332067859393579 0.016852651292092017 0.00018057644759353841 -0.019142778505488199 0.014856533252466948 0.043333649995826909
leaf_count=28 25 20 56 49 43 23 103 49 79 27 33 40 113 60 51 47 22 31 37 26 24 45 49 27 27 117 38 101 39 31
internal_value=0 0.31498 -0.189264 -0.287887 0.505865 -0.46686 -0.0309048 0.17795 -0.202168 0.624143 0.0289788 0.122118 -0.171595 -0.388191 0.347758 -0.174509 -0.706364 0.0844251 0.522565 0.110212 0.783482 0.0624045 -0.476407 0.115215 0.237153 0.139267 -0.0972422 -0.233968 0.0734262 0.344746
internal_count=1460 548 912 562 229 182 350 319 380 131 247 239 331 137 98 103 45 199 80 174 51 214 77 111 47 143 151 180 84 80
shrinkage=0.1


Tree=2
num_leaves=31
num_cat=0
split_feature=17 17 61 61 17 43 46 34 46 43 19 46 52 19 44 38 58 46 67 27 34 46 4 46 59 17 34 38 38 46
split_gain=70.5 11.6609 11.6273 7.14821 3.06518 2.98071 2.92278 2.86445 2.08538 1.58526 1.45368 1.29707 1.16926 1.13279 1.08659 1.00569 0.95372 0.698035 0.631064 0.580928 0.562093 0.52582 0.514598 0.489149 0.486008 0.469411 0.449719 0.405687 0.376481 0.35285
threshold=6.5000000000000009 4.5000000000000009 2.5000000000000004 1.5000000000000002 8.5000000000000018 735.50000000000011 1420.5000000000002 930.50000000000011 1827.0000000000002 1088.5000000000002 1956.5000000000002 1970.5000000000002 1.5000000000000002 1953.5000000000002 600.50000000000011 683.50000000000011 1.0000000180025095e-35 1039.5000000000002 16.500000000000004 3.5000000000000004 68.000000000000014 2229.5000000000005 12207.000000000002 1642.5000000000002 1926.5000000000002 7.5000000000000009 139.50000000000003 1108.5000000000002 940.50000000000011 2261.0000000000005
decision_type=2 2 2 2 2 2 2 2 2 2 2 2 2 2 2 2 2 2 2 2 2 2 2 2 10 2 2 2 2 2
left_child=1 5 7 9 11 -1 10 8 16 14 26 25 22 17 15 -3 18 -7 -2 -10 -11 -6 -8 -9 -17 -4 -5 -12 -15 -21
right_child=2 3 4 6 21 13 12 23 19 20 27 -13 -14 28 -16 24 -18 -19 -20 29 -22 -23 -24 -25 -26 -27 -28 -29 -30 -31
leaf_value=-0.07144262298941613 -0.00075718194430950906 -0.045321616746093099 0.020797595218755308 -0.036701718807220458 0.060940156490714464 -0.060032139150869281 0.0036279777942225342 0.026662284165620803 0.014387073755022829 -0.027280800607986752 -0.011419486199479759 0.052937600410209507 -0.013916886161702375 -0.033998551279306413 -0.012991026001206288 -0.03799659397707067 -0.0033222368761926194 -0.037314495659972489 0.015460353529624299 0.027120182511149622 -0.00843918952282126 0.081283207951734465 0.014711752770439027 0.04449335083365441 -0.024352708791196345 0.03825478124064069 -0.017098004065073013 -0.0013719907969061752 -0.016968279811381191 0.042882015183568004
leaf_count=30 29 38 24 25 27 21 125 25 27 20 108 53 30 25 42 33 48 38 139 49 76 24 63 40 125 43 22 64 27 20
internal_value=0 -0.170338 0.283482 -0.121982 0.499764 -0.434753 -0.0378027 0.18538 0.145594 -0.23212 -0.119398 0.412483 0.0441666 -0.359165 -0.275875 -0.307153 0.0910909 -0.454004 0.126609 0.268227 -0.123645 0.705134 0.0734222 0.376352 -0.272024 0.320015 -0.275255 -0.0768088 -0.251559 0.316888
internal_count=1460 912 548 771 171 141 437 377 312 334 219 120 218 111 238 196 216 59 168 96 96 51 188 65 158 67 47 172 52 69
shrinkage=0.1


Tree=3
num_leaves=31
num_cat=0
split_feature=17 17 57 20 61 19 46 46 38 43 46 34 43 38 34 43 46 4 46 18 46 62 34 46 27 4 62 41 62 12
split_gain=57.105 9.69566 9.61505 5.58585 2.74195 2.34475 2.31856 2.09433 1.88382 1.76981 1.52023 1.17613 1.02468 1.01247 0.880088 0.81827 0.780557 0.707664 0.688956 0.645176 0.835642 0.550385 0.498305 0.487771 0.462943 0.459072 0.401506 0.37736 0.339883 0.335572
threshold=6.5000000000000009 7.5000000000000009 1.5000000000000002 1954.5000000000002 2.5000000000000004 1991.5000000000002 1489.5000000000002 1718.5000000000002 659.00000000000011 728.50000000000011 2623.0000000000005 1311.5000000000002 1148.5000000000002 1312.5000000000002 913.50000000000011 1417.5000000000002 1117.5000000000002 12207.000000000002 1093.0000000000002 4.5000000000000009 980.50000000000011 382.00000000000006 446.50000000000006 1161.0000000000002 3.5000000000000004 7073.0000000000009 499.50000000000006 1.0000000180025095e-35 396.50000000000006 6.5000000000000009
decision_type=2 2 2 2 2 2 2 2 2 2 2 2 2 2 2 2 2 2 2 2 2 2 2 2 2 2 2 2 2 2
left_child=2 7 3 9 15 8 12 13 18 -1 11 -6 21 28 24 26 27 29 -5 -10 -21 -4 -19 -7 -9 -22 -3 -11 -2 -8
right_child=1 4 6 5 10 23 17 14 19 16 -12 -13 -14 -15 -16 -17 -18 22 -20 20 25 -23 -24 -25 -26 -27 -28 -29 -30 -31
leaf_value=-0.064109031999799171 -0.010629773967084475 0.0083036693360190855 -0.023683078321986475 -0.04621797065038289 0.040554209296093435 -0.010477713485514481 0.011749991736374796 0.011072289790517014 -0.034667101227456615 -0.037034622393548489 0.076055326461792 0.065195838451385504 -0.0013513532032811781 0.016245675392759343 0.041520252305528395 0.037333247708339318 -0.027545715271736739 0.0045134262065403162 -0.026086700247491108 -0.023594657023925159 -0.023661741825441521 -0.0092024168028179906 0.023450925630855969 0.007016110315767897 0.024651204190544181 -0.01011076675184692 0.026997487895466667 -0.055633356124162675 0.0037969485988704429 -0.0015231093161855826
leaf_count=28 20 20 52 34 86 28 25 38 21 24 20 25 80 75 23 51 54 24 34 105 30 53 33 37 74 150 27 20 89 80
internal_value=0 0.255134 -0.153304 -0.233771 0.412125 -0.180502 -0.0222839 0.142434 -0.21097 -0.419367 0.506768 0.461041 -0.098776 0.0730304 0.23703 0.285612 -0.356017 0.0650681 -0.361523 -0.177514 -0.165049 -0.163738 0.154772 -0.00519691 0.200441 -0.123693 0.190427 -0.454886 0.0114984 0.0163715
internal_count=1460 548 912 565 229 439 347 319 374 126 131 111 185 184 135 98 98 162 68 306 285 105 57 65 112 180 47 44 109 105
shrinkage=0.1


Tree=4
num_leaves=31
num_cat=0
split_feature=17 17 17 49 43 3 46 46 7 46 46 19 38 34 46 64 38 20 34 34 57 46 34 79 38 62 3 19 4 4
split_gain=46.2551 8.11229 7.85348 4.97107 2.28011 2.14543 2.06005 1.69641 1.14309 1.11207 0.909155 0.866499 0.820104 0.804654 0.808486 0.730253 0.72916 0.695411 0.680814 0.570602 0.548281 0.544144 0.521194 0.47088 0.419737 0.37488 0.365549 0.352964 0.349142 0.298422
threshold=6.5000000000000009 4.5000000000000009 7.5000000000000009 1.5000000000000002 1681.0000000000002 68.500000000000014 814.50000000000011 1718.5000000000002 1.0000000180025095e-35 2368.5000000000005 1853.5000000000002 1947.5000000000002 1312.5000000000002 568.50000000000011 1312.0000000000002 2.5000000000000004 1058.5000000000002 1979.5000000000002 186.00000000000003 785.00000000000011 1.5000000000000002 1751.0000000000002 30.500000000000004 1.0000000180025095e-35 940.50000000000011 646.00000000000011 65.500000000000014 1936.5000000000002 9100.5000000000018 6613.5000000000009
decision_type=2 2 2 2 2 8 2 2 2 2 2 2 2 2 2 2 2 2 2 2 2 2 2 2 2 2 8 2 2 2
left_child=1 6 7 5 9 13 -1 12 17 19 -6 15 29 14 23 -8 26 22 -7 25 -20 -10 -5 27 -13 -4 -9 -3 -24 -2
right_child=2 3 4 8 10 18 11 16 21 -11 -12 24 -14 -15 -16 -17 -18 -19 20 -21 -22 -23 28 -25 -26 -27 -28 -29 -30 -31
leaf_value=-0.063963592662052676 -0.0074560646402339146 -0.036266844512687794 0.011051209984968106 -0.021144423762997314 0.037841088117824662 -0.020115946742113342 -0.05494990785207067 0.0043306893669068812 0.003381132632326526 0.045142646396861358 0.058682732105255132 -0.029837623920979068 0.014621107971916597 -0.01259600932472477 -0.015154462194048047 -0.03028121768896069 0.030333669476762967 0.0020613592805296004 -0.012058680176030933 0.033391607279867626 -0.0021312652753157166 0.017777604405291199 -0.013410224974155428 -0.045305619053542613 -0.014031193960857178 0.02612437398144693 0.019434210683329633 -0.023741956925950946 0.0028486265285339739 0.004259260769939357
leaf_count=22 30 36 33 31 36 55 21 22 73 34 50 42 75 51 42 28 54 83 127 43 99 41 25 20 28 33 59 60 28 79
internal_value=0 -0.137974 0.22962 -0.097641 0.370913 -0.158448 -0.358516 0.128191 0.00839239 0.29353 0.499583 -0.306544 0.0657273 -0.235173 -0.270426 -0.408535 0.213327 -0.0443041 -0.101382 0.244278 -0.0770995 0.0855881 -0.108449 -0.313469 -0.235151 0.185878 0.15332 -0.284388 -0.0482064 0.0103486
internal_count=1460 912 548 771 229 490 141 319 281 143 86 119 184 209 158 49 135 167 281 109 226 114 84 116 70 66 81 96 53 109
shrinkage=0.1


Tree=5
num_leaves=31
num_cat=0
split_feature=17 46 61 41 38 17 46 34 38 34 17 34 46 3 63 61 66 38 26 4 66 59 37 12 17 46 34 46 44 19
split_gain=37.4666 6.71069 6.53603 4.42338 2.13963 1.85155 1.72962 1.64558 1.30194 1.14892 0.932489 0.791085 0.69773 0.69627 0.559168 0.489424 0.470654 0.451717 0.390004 0.38428 0.370776 0.36947 0.365123 0.333299 0.331358 0.32038 0.31868 0.287022 0.259646 0.256369
threshold=6.5000000000000009 1392.5000000000002 2.5000000000000004 1.0000000180025095e-35 1006.5000000000001 8.5000000000000018 1483.0000000000002 446.50000000000006 1012.5000000000001 368.50000000000006 5.5000000000000009 687.50000000000011 893.50000000000011 63.500000000000007 1.5000000000000002 1.5000000000000002 99.000000000000014 1164.5000000000002 301.00000000000006 12207.000000000002 151.50000000000003 1983.5000000000002 703.50000000000011 6.5000000000000009 4.5000000000000009 2229.5000000000005 951.00000000000011 2154.5000000000005 690.00000000000011 1927.5000000000002
decision_type=2 2 2 2 2 2 2 2 2 2 2 2 2 8 2 2 2 2 10 2 2 10 2 2 2 2 2 2 2 2
left_child=1 3 6 4 9 11 17 10 13 14 16 20 -5 -8 -1 -12 29 -2 -13 23 -4 22 -6 -9 -11 -7 27 -10 -25 -3
right_child=2 7 5 12 21 25 8 19 26 24 15 18 -14 -15 -16 -17 -18 -19 -20 -21 -22 -23 -24 28 -26 -27 -28 -29 -30 -31
leaf_value=-0.04023624068269363 -0.0044516156057262442 -0.026868660662633676 0.016238854306976538 -0.058987240086902273 -0.0075389010390767555 0.045370646869694747 -0.0017794462346604892 0.014420176102291972 0.017297306679078004 -0.025443306744098667 -0.011537851014685248 0.031966591359426581 -0.036498888222047603 0.015008159334372198 -0.024267364053853921 0.003095486092959242 -0.0022709780139848592 0.0082974548869328025 0.04949588721448725 0.015045030262479756 0.031065018451021567 0.001021753083795118 -0.019984082858367214 -0.0061064443847333848 -0.012902524013857622 0.061249901726841929 0.030380353331565857 0.030244550594817038 0.0074042666610330352 -0.013912550229690082
leaf_count=26 47 24 37 22 126 27 35 21 67 25 31 30 37 84 140 87 24 68 22 47 31 39 29 33 134 24 53 23 25 42
internal_value=0 -0.124176 0.206658 -0.189383 -0.159888 0.368817 0.133106 -0.0113326 0.177981 -0.209495 -0.0659637 0.30098 -0.448844 0.100706 -0.267685 -0.00748865 -0.142631 0.0308697 0.393828 0.0788519 0.229978 -0.0767831 -0.0986735 0.0362554 -0.148743 0.528432 0.242287 0.20606 -0.00282862 -0.186239
internal_count=1460 912 548 578 519 171 377 334 262 325 208 120 59 119 166 118 90 115 52 126 68 194 155 79 159 51 143 90 58 66
shrinkage=0.1


Tree=6
num_leaves=31
num_cat=0
split_feature=17 57 17 20 34 19 46 46 43 38 46 19 38 34 53 34 18 46 18 46 1 19 44 46 4 46 3 4 20 44
split_gain=30.3479 5.72084 5.32374 3.38352 1.62479 1.38165 1.35335 1.17374 1.12701 1.09335 1.06901 0.68457 0.547874 0.540519 0.534653 0.501593 0.480969 0.478209 0.468704 0.41122 0.409253 0.335894 0.331783 0.3129 0.259962 0.259277 0.258803 0.249274 0.242683 0.205126
threshold=6.5000000000000009 1.5000000000000002 7.5000000000000009 1954.5000000000002 1225.5000000000002 1991.5000000000002 1560.5000000000002 1718.5000000000002 728.50000000000011 659.00000000000011 2368.5000000000005 1957.5000000000002 1432.5000000000002 913.50000000000011 4.5000000000000009 446.50000000000006 4.5000000000000009 980.50000000000011 4.5000000000000009 1093.0000000000002 65.000000000000014 1978.5000000000002 1000.5000000000001 2015.5000000000002 8649.0000000000018 1209.5000000000002 80.500000000000014 7073.0000000000009 1993.5000000000002 381.00000000000006
decision_type=2 2 2 2 2 2 2 2 2 2 2 2 2 2 2 2 2 2 2 2 2 2 2 2 2 2 8 2 2 2
left_child=1 3 7 8 10 9 11 12 -1 19 14 -3 21 22 20 -8 -11 -18 -10 -5 -4 -2 28 -6 -13 -7 -17 -19 -9 -20
right_child=2 6 4 5 23 25 15 13 18 16 -12 24 -14 -15 -16 26 17 27 29 -21 -22 -23 -24 -25 -26 -27 -28 -29 -30 -31
leaf_value=-0.049520886928907465 -0.007403543811484144 -0.013854997870997372 0.020393642593129264 -0.03482176166246919 0.038324702531099319 -0.0061936533817060994 0.0011951762368708049 0.0040955570849379704 -0.038589679002761841 -0.027632149863278582 0.038899662938307634 -0.0074537521209933014 0.015574081516705264 0.031292995778114903 0.031000647311275071 0.0058556272725885121 -0.017313919881181347 -0.017143329543371996 -0.026667647832568659 -0.019268821862266017 0.0045026406374139094 0.0046289994764735862 0.023068136605434122 0.053361166119575504 0.0016823415347607805 0.0064393442980486514 0.018886242184255806 -0.0071578651493667475 0.015400954351133232 -0.015597930586395357
leaf_count=28 29 75 71 34 31 32 79 31 25 21 44 51 39 23 37 27 105 30 47 34 21 116 32 25 80 33 35 150 49 26
internal_value=0 -0.111759 0.185992 -0.173827 0.302323 -0.132369 -0.0106957 0.102482 -0.318274 -0.155757 0.2544 -0.0623631 0.0505245 0.173298 0.208491 0.06479 -0.130269 -0.119507 -0.267721 -0.270453 0.167663 0.0222249 0.144624 0.450374 -0.0187446 0.00220022 0.132116 -0.0882211 0.110201 -0.22725
internal_count=1460 912 548 565 229 439 347 319 126 374 173 206 184 135 129 141 306 285 98 68 92 145 112 56 131 65 62 180 80 73
shrinkage=0.1


Tree=7
num_leaves=31
num_cat=0
split_feature=17 17 61 41 62 17 38 38 3 46 46 62 43 46 38 4 57 20 19 59 18 3 20 62 38 67 25 3 38 3
split_gain=24.5818 4.84934 4.47423 2.64007 1.47601 1.29411 1.1923 1.06805 0.911752 0.738268 0.733765 0.697389 0.608283 0.593871 0.519125 0.444978 0.429981 0.4018 0.393057 0.294376 0.291503 0.333566 0.276245 0.270245 0.25793 0.24957 0.237482 0.23701 0.220888 0.21547
threshold=6.5000000000000009 5.5000000000000009 2.5000000000000004 1.0000000180025095e-35 289.00000000000006 8.5000000000000018 786.00000000000011 1006.5000000000001 53.500000000000007 1483.0000000000002 1505.5000000000002 226.50000000000003 1050.5000000000002 1970.5000000000002 755.50000000000011 12207.000000000002 1.5000000000000002 1976.5000000000002 1956.5000000000002 1994.5000000000002 5.5000000000000009 67.500000000000014 1994.5000000000002 541.50000000000011 1906.0000000000002 22.500000000000004 1.5000000000000002 66.500000000000014 1317.0000000000002 62.500000000000007
decision_type=2 2 2 2 2 2 2 2 10 2 2 2 2 2 2 2 2 2 2 10 2 8 2 2 2 2 2 8 2 10
left_child=1 3 6 7 22 13 29 11 -5 18 19 -1 23 26 -10 25 -9 20 -6 -8 21 -13 -3 27 -7 -11 -4 -12 -18 -2
right_child=2 4 5 8 9 24 10 16 14 15 12 17 -14 -15 -16 -17 28 -19 -20 -21 -22 -23 -24 -25 -26 -27 -28 -29 -30 -31
leaf_value=-0.028008937789127233 -0.0057325741760757606 -0.019355773536695375 0.013486718772569808 -0.052199694141745571 -0.014594521805644035 0.037787925524096336 -0.0038515911891843883 -0.010998370062432015 -0.038139228101657791 -0.0038458728614975423 -0.0038082438876153903 -0.029315847241216237 0.020350898321427353 0.032394211134820619 -0.017863429939773464 0.015277820147660583 -0.0047937177786869668 -0.0099321742772590371 -0.00096715929752647664 0.0091010280168218848 -0.013267293451792575 -0.016582025329504781 -0.0052309723524376758 0.016818522535530584 0.05235392108559609 0.0066218146301832972 0.025703986161030257 0.010796854935586454 0.0075754478859545839 0.006258744163547502
leaf_count=48 43 45 41 20 25 31 23 102 23 34 20 36 141 53 28 43 42 100 138 74 69 48 20 28 20 69 26 25 22 23
internal_value=0 -0.100583 0.167393 -0.161381 -0.0131248 0.301559 0.106538 -0.134067 -0.341038 0.0156881 0.132445 -0.169581 0.165147 0.244846 -0.270074 0.0673351 -0.0696693 -0.148615 -0.0305725 0.0602979 -0.180833 -0.220394 -0.150097 0.0910514 0.435001 0.0316646 0.182277 0.043057 -0.00541817 -0.0155378
internal_count=1460 912 548 538 374 171 377 467 71 309 311 301 214 120 51 146 166 253 163 97 153 84 65 73 51 103 67 45 64 66
shrinkage=0.1


Tree=8
num_leaves=31
num_cat=0
split_feature=17 17 17 49 46 43 63 4 3 27 53 19 4 46 64 46 4 46 20 38 61 54 67 19 34 17 40 57 59 0
split_gain=19.9113 4.10145 3.6567 2.45564 1.16973 1.15955 1.12343 0.925435 0.753577 0.666153 0.6401 0.51283 0.512411 0.500208 0.465983 0.464212 0.413077 0.392753 0.345733 0.308238 0.302906 0.300952 0.300576 0.289725 0.25498 0.251967 0.251608 0.245665 0.221944 0.187629
threshold=6.5000000000000009 4.5000000000000009 7.5000000000000009 1.5000000000000002 814.50000000000011 1681.0000000000002 2.5000000000000004 12243.500000000002 68.500000000000014 3.5000000000000004 3.5000000000000004 1947.5000000000002 3957.5000000000005 2368.5000000000005 2.5000000000000004 1853.5000000000002 9249.0000000000018 1928.5000000000002 1978.5000000000002 1012.5000000000001 2.5000000000000004 5.5000000000000009 82.500000000000014 1978.5000000000002 764.00000000000011 5.5000000000000009 4.5000000000000009 2.5000000000000004 1990.5000000000002 498.50000000000006
decision_type=2 2 2 2 2 2 2 2 8 2 2 2 2 2 2 2 2 2 2 2 2 2 2 2 2 2 2 2 10 2
left_child=1 4 7 6 -1 13 29 9 18 23 16 14 -11 19 -6 -7 28 24 21 -4 -14 -8 -17 -2 -12 -10 -13 -18 -5 -3
right_child=2 3 5 10 11 15 8 -9 25 12 17 26 20 -15 -16 22 27 -19 -20 -21 -22 -23 -24 -25 -26 -27 -28 -29 -30 -31
leaf_value=-0.045917340173830534 -0.0085776583829078271 -0.031749699190258981 0.0046672445113654249 -0.011543932011711219 -0.03992449755647353 0.02522393661654658 -0.02357459192086632 0.01868973187396698 -0.0079513526856225657 -0.0035516770123022387 0.0010393927614280923 -0.019794007821215525 0.0091663262015919539 0.029777925395790269 -0.020218685934586186 0.046447184532880784 -0.004132016038327197 0.019358501143076204 -0.0090388522572958704 0.018405956255920817 0.022103241564972061 -0.012191429122661551 0.030620632544159889 0.0041535497505471785 0.013815117769298099 -0.0016571106701070129 -0.0072817660793662075 0.0057373521063232525 0.00081924518104642635 -0.019543159164159614
leaf_count=22 39 20 20 53 21 36 48 66 159 29 61 45 131 34 28 30 43 22 78 89 21 45 20 33 21 106 25 61 20 34
internal_value=0 -0.0905245 0.150654 -0.0618462 -0.24734 0.247066 -0.104584 0.0814426 -0.0877327 0.0539327 0.0126785 -0.208177 0.086296 0.191883 -0.28664 0.338824 -0.0239063 0.074943 -0.139487 0.158851 0.109537 -0.180666 0.401166 -0.0274252 0.0431122 -0.0543366 -0.153254 0.0165675 -0.0815676 -0.240641
internal_count=1460 912 548 771 141 229 490 319 436 253 281 119 181 143 49 86 177 104 171 109 152 93 50 72 82 265 70 104 73 54
shrinkage=0.1


Tree=9
num_leaves=31
num_cat=0
split_feature=17 46 30 38 46 12 57 38 41 64 20 27 51 62 37 34 34 33 4 20 57 33 51 59 20 18 51 40 19 19
split_gain=16.1281 3.50306 3.07938 2.16425 1.35245 1.34898 0.995616 0.750272 0.687387 0.636433 0.544945 0.505394 0.477809 0.445493 0.404877 0.378116 0.338305 0.320126 0.294846 0.263038 0.242013 0.230081 0.224986 0.206089 0.181452 0.176463 0.174113 0.172749 0.166904 0.159198
threshold=6.5000000000000009 1144.5000000000002 4.5000000000000009 755.50000000000011 2386.0000000000005 6.5000000000000009 1.5000000000000002 764.50000000000011 1.0000000180025095e-35 2.5000000000000004 1986.5000000000002 3.5000000000000004 3.5000000000000004 547.00000000000011 485.50000000000006 127.00000000000001 787.50000000000011 1.5000000000000002 12549.000000000002 1986.5000000000002 2.5000000000000004 1.5000000000000002 3.5000000000000004 1958.5000000000002 1969.5000000000002 6.5000000000000009 2.5000000000000004 3.5000000000000004 1920.5000000000002 1947.5000000000002
decision_type=2 2 2 2 2 2 2 2 2 2 2 2 2 2 2 2 2 2 2 2 2 2 2 10 2 2 2 2 2 2
left_child=1 3 4 8 7 25 10 -2 21 -5 15 18 16 14 -9 22 -4 -11 23 -16 -15 -1 -7 27 -20 -3 -18 -8 -12 -17
right_child=2 5 12 9 -6 6 11 13 -10 17 28 -13 -14 20 19 29 26 -19 24 -21 -22 -23 -24 -25 -26 -27 -28 -29 -30 -31
leaf_value=-0.016191049918000185 -0.0027754513050527556 0.0040161781702495536 0.017383557831978098 -0.024181947986962219 0.025782525513638205 -0.026984138008473175 -0.017284327812958508 0.012784705770699756 -0.041764248747910772 -0.0057519016779775996 -0.0098939127784615274 0.011270133534756801 0.042357777580618865 0.0083590877072534479 -0.0073207650217227641 -0.017323470730334519 0.035817434542157037 -0.0129525912870653 -0.001691757587038658 0.0049043536230700818 0.016307080623205499 -0.028072415158534664 -0.014416971507257429 -0.0020151910575128399 0.011468958270270377 0.012554822369095157 0.024833287058338042 -0.0053637718301146262 -0.00045910986937815326 -0.0068527243337330387
leaf_count=28 57 84 34 33 47 28 20 58 28 122 30 30 20 61 22 20 27 125 22 88 103 39 29 86 20 34 31 31 50 53
internal_value=0 -0.081472 0.135589 -0.155637 0.0975952 -0.029681 -0.056279 0.0782358 -0.28606 -0.111386 -0.104909 -0.00741653 0.283491 0.0964329 0.0602404 -0.14487 0.253037 -0.0939598 -0.027548 0.0245933 0.133508 -0.231071 -0.205903 -0.0500197 0.0457525 0.0647647 0.299466 -0.100385 -0.0399716 -0.0972142
internal_count=1460 912 548 375 436 537 419 389 95 280 210 209 112 332 168 130 92 247 179 110 164 67 57 137 42 118 58 51 80 73
shrinkage=0.1


Tree=10
num_leaves=31
num_cat=0
split_feature=53 46 17 38 4 43 43 19 62 61 46 2 34 0 46 31 18 46 66 46 30 46 4 38 7 18 50 34 19 20
split_gain=13.1983 3.82477 2.43812 1.8698 1.44024 1.05574 0.798219 0.648647 0.593093 0.532796 0.520889 0.500936 0.4115 0.279571 0.278984 0.271427 0.25054 0.269828 0.2482 0.247007 0.233639 0.205184 0.202902 0.199435 0.182965 0.182483 0.16794 0.151367 0.14802 0.139001
threshold=3.5000000000000004 1822.0000000000002 4.5000000000000009 1312.5000000000002 9606.0000000000018 1379.5000000000002 735.50000000000011 1989.5000000000002 385.00000000000006 2.5000000000000004 1982.5000000000002 1.0000000180025095e-35 859.50000000000011 660.50000000000011 1137.5000000000002 2.5000000000000004 5.5000000000000009 1284.5000000000002 196.50000000000003 1516.5000000000002 4.5000000000000009 2241.5000000000005 6438.5000000000009 1115.0000000000002 1.0000000180025095e-35 5.5000000000000009 1.0000000180025095e-35 599.50000000000011 1959.5000000000002 2003.5000000000002
decision_type=2 2 2 2 2 2 2 2 2 2 2 2 2 2 2 2 2 2 2 2 2 2 2 2 2 2 2 2 2 2
left_child=2 3 6 8 7 21 -1 11 22 -7 18 16 -5 -11 -13 -8 17 27 24 28 -14 29 -2 -12 25 -6 -18 -4 -10 -3
right_child=1 5 4 12 10 9 15 -9 19 13 23 14 20 -15 -16 -17 26 -19 -20 -21 -22 -23 -24 -25 -26 -27 -28 -29 -30 -31
leaf_value=-0.036066458226534828 -0.017034360681745141 0.0088917396569502399 -0.021526373479781407 0.0085339140631258484 -0.011118276951581997 0.0189751050023492 -0.026282775193452835 0.0018023342816281672 -0.0085021148237865423 0.027437213444823607 0.0025321952998638153 -0.023746120418573536 0.014477547914721074 0.040630476305197033 -0.013483929774467496 -0.01427091432790468 -0.0080204455042737974 -0.0066865972864131144 0.002787219230808189 0.0066662607493021319 0.026480759431918462 0.020152708112898217 -0.0049072740602659412 0.016011073653187071 -0.0010009592686935017 -0.0025528210816298459 0.0013223694094146293 -0.010620813388377429 0.00078458975652263548 0.017205621966471275
leaf_count=29 22 61 35 100 59 43 25 38 20 36 23 43 50 29 69 76 97 39 58 72 24 41 37 21 75 43 24 20 121 30
internal_value=0 0.100993 -0.0895107 0.0462185 -0.0642941 0.202782 -0.21443 -0.10564 -0.00556843 0.276107 -0.0102039 -0.12001 0.127173 0.333234 -0.174239 -0.172441 -0.0917611 -0.130491 -0.0289005 0.0190077 0.183705 0.14279 -0.0942924 0.089653 -0.047504 -0.0750735 -0.0616733 -0.175607 -0.00532673 0.116326
internal_count=1460 686 774 446 644 240 130 365 272 108 279 327 174 65 112 101 215 94 235 213 74 132 59 44 177 102 121 55 141 91
shrinkage=0.1


Tree=11
num_leaves=31
num_cat=0
split_feature=53 46 46 18 30 34 46 38 12 19 18 43 4 4 0 51 18 38 32 44 37 4 38 19 37 38 43 4 38 78
split_gain=10.6907 3.14865 1.98075 1.81484 1.55725 0.948701 0.711726 0.562473 0.490828 0.531553 0.436598 0.420712 0.408014 0.39525 0.29685 0.288096 0.266028 0.243291 0.198833 0.285245 0.179149 0.176026 0.175372 0.175019 0.168087 0.16803 0.153481 0.142003 0.131182 0.126936
threshold=3.5000000000000004 1483.0000000000002 1325.5000000000002 4.5000000000000009 4.5000000000000009 169.00000000000003 2111.0000000000005 1108.5000000000002 3.5000000000000004 1949.5000000000002 5.5000000000000009 912.50000000000011 5962.5000000000009 7261.5000000000009 966.50000000000011 3.5000000000000004 5.5000000000000009 791.50000000000011 1.0000000180025095e-35 642.00000000000011 793.50000000000011 14183.000000000002 1056.5000000000002 1957.5000000000002 475.00000000000006 659.00000000000011 1379.5000000000002 12327.500000000002 858.50000000000011 1.0000000180025095e-35
decision_type=2 2 2 2 2 2 2 2 2 2 2 2 2 2 2 2 2 2 2 2 2 2 2 2 2 2 2 2 2 2
left_child=2 7 3 14 6 12 13 23 -4 10 -10 16 -5 22 -1 20 -7 -15 19 -11 29 -19 -3 -2 -12 -14 -8 -13 -26 -6
right_child=1 4 8 5 15 11 26 -9 9 18 24 27 25 17 -16 -17 -18 21 -20 -21 -22 -23 -24 -25 28 -27 -28 -29 -30 -31
leaf_value=-0.041490337196737531 -0.010995525411831644 -0.00654233888135818 0.011079743664711714 -0.028484259982561246 0.020980867410253269 -0.01926236128171073 0.014321474363096061 0.0045647563107333901 -0.017707444896969276 -0.006061430477567918 -0.011951818014495075 -0.0055492565716233639 -0.021185420432852375 0.002017342100974501 -0.024261013641953471 0.035328124016523361 -0.0084220579875233983 0.0099488033753766299 0.004960092318919012 0.0022378306724069835 0.015263523064829684 0.018370967885029729 0.0062613504915498197 -0.0027732132001577381 -0.0057630519142840061 -0.011581330224700131 0.022927496686231258 0.0033789661899209025 0.0051026828468138776 0.030490955233573914
leaf_count=20 39 23 25 29 32 38 40 105 39 91 20 163 27 34 20 20 56 172 49 76 27 29 20 77 25 56 43 20 20 25
internal_value=0 0.0908938 -0.0805596 -0.125925 0.137599 -0.105068 0.106538 -0.00737844 -0.0241486 -0.0346912 -0.0934278 -0.0736662 -0.182733 0.0822768 -0.328757 0.245417 -0.128043 0.098406 -0.00641067 -0.0228452 0.219735 0.111639 -0.00587135 -0.0553761 -0.0432398 -0.147056 0.1878 -0.0457349 -0.00933836 0.25152
internal_count=1460 686 774 429 465 389 361 221 345 320 104 277 112 278 40 104 94 235 216 167 84 201 43 116 65 83 83 183 45 57
shrinkage=0.1


Tree=12
num_leaves=31
num_cat=0
split_feature=27 46 46 18 34 38 34 43 62 1 61 20 46 12 62 18 0 38 19 44 62 46 33 20 43 2 61 44 19 60
split_gain=8.75129 2.16691 1.92165 1.51392 1.00904 0.911378 0.617022 0.530718 0.481961 0.450973 0.368823 0.356133 0.336833 0.333781 0.29911 0.287846 0.281743 0.252343 0.247327 0.197896 0.191822 0.183247 0.159219 0.155693 0.155285 0.150848 0.126393 0.119535 0.100635 0.100376
threshold=3.5000000000000004 1411.5000000000002 1928.5000000000002 4.5000000000000009 903.50000000000011 921.50000000000011 274.00000000000006 1487.5000000000002 226.50000000000003 47.500000000000007 2.5000000000000004 1988.5000000000002 1201.5000000000002 3.5000000000000004 507.00000000000006 5.5000000000000009 660.50000000000011 546.50000000000011 1949.5000000000002 781.50000000000011 528.50000000000011 1627.5000000000002 1.5000000000000002 2005.5000000000002 1148.5000000000002 1.0000000180025095e-35 1.5000000000000002 546.50000000000011 1964.5000000000002 1.0000000180025095e-35
decision_type=2 2 2 2 2 2 2 2 2 2 2 2 2 2 2 2 2 2 2 2 2 2 2 2 2 2 2 2 2 2
left_child=1 3 4 9 12 8 11 23 25 -1 -9 15 -2 -8 -15 18 -12 -10 -3 -13 -14 -6 -19 -4 26 -5 -7 -24 -16 -26
right_child=2 6 7 5 21 24 13 10 17 -11 16 19 20 14 28 -17 -18 22 -20 -21 -22 -23 27 -25 29 -27 -28 -29 -30 -31
leaf_value=-0.035781423360682456 -0.0057768432274719495 -0.020666053336437631 0.012391417244871264 -0.014882345840334894 0.010718131862027018 -0.0086595700038835793 0.014711627951608255 0.015478295256339369 -0.017625863352362572 -0.016078629757144622 0.023280794117599729 -0.0026430334306496665 0.0020361334554737189 -0.0010471403977441553 0.0024494810146279637 -0.0014133449545816372 0.039864973315880417 -0.0045126127965641133 -0.0073169538325497082 0.0080420412745577496 0.0075752439153502181 0.0202666124582968 -0.012520150680475954 0.020944127016540234 0.0031124136061407627 -0.025400043055415156 -0.0028903009566616875 -0.0046845005648210652 0.010869820764055476 -0.0034464236314566475
leaf_count=26 36 23 80 25 37 78 26 21 37 21 20 52 137 95 22 38 21 63 35 26 115 44 88 29 40 30 74 25 40 56
internal_value=0 -0.0593147 0.101055 -0.0979609 0.0604455 -0.0823106 0.0016314 0.188685 -0.122739 -0.26978 0.262552 -0.0410037 0.0327131 0.0421697 0.02479 -0.0817833 0.317751 -0.10119 -0.126106 0.00918658 0.045639 0.15905 -0.085408 0.146669 -0.0386223 -0.206193 -0.0585085 -0.107866 0.0788196 -0.00713575
internal_count=1460 920 540 563 369 516 357 171 268 47 62 174 288 183 157 96 41 213 58 78 252 81 176 109 248 55 152 113 62 96
shrinkage=0.1


Tree=13
num_leaves=31
num_cat=0
split_feature=53 46 2 30 17 41 46 46 43 59 46 46 46 4 4 51 20 38 62 78 7 18 66 4 47 34 50 66 18 3
split_gain=7.14964 2.08564 1.43121 1.03825 0.947018 0.672685 0.499216 0.45617 0.376843 0.376194 0.343025 0.328631 0.318492 0.306317 0.230385 0.219012 0.204643 0.179815 0.171279 0.197682 0.13348 0.178903 0.131771 0.125105 0.11953 0.118758 0.111019 0.113724 0.104175 0.0966178
threshold=3.5000000000000004 1483.0000000000002 1.0000000180025095e-35 4.5000000000000009 5.5000000000000009 1.0000000180025095e-35 2111.0000000000005 1325.5000000000002 1109.0000000000002 1939.5000000000002 1312.0000000000002 1170.0000000000002 1982.5000000000002 6438.5000000000009 12930.500000000002 3.5000000000000004 1967.5000000000002 773.50000000000011 865.50000000000011 1.0000000180025095e-35 1.0000000180025095e-35 5.5000000000000009 223.00000000000003 14183.000000000002 1.0000000180025095e-35 662.50000000000011 1.0000000180025095e-35 57.500000000000007 5.5000000000000009 68.500000000000014
decision_type=2 2 2 2 2 2 2 2 2 10 2 2 2 2 2 2 2 2 2 2 2 2 2 2 2 2 2 2 2 8
left_child=2 8 4 6 9 10 13 -7 26 11 24 -1 20 -3 16 18 28 -15 19 -5 21 -6 -8 -19 -4 -10 27 -2 29 -11
right_child=1 3 5 15 12 7 22 -9 25 14 -12 -13 -14 17 -16 -17 -18 23 -20 -21 -22 -23 -24 -25 -26 -27 -28 -29 -30 -31
leaf_value=-0.020945304621543204 -0.01235003067373202 -0.002080170839492764 -0.016888344271611129 0.01601815564907156 -0.0061485863115260568 -0.034058583681083596 0.012660978130297734 -0.014561371518478458 0.00059871182550535833 -0.017170197542549837 -0.0046087814551132754 -0.0055577324419889759 0.010326696652919055 0.0009409035690623569 0.00047391635649230167 0.029442681963555518 -0.0041104813710659402 0.0079940922966082861 0.0097211584169417629 0.027498052765925724 0.002566132610560619 0.0012219849884988637 0.021088275579469545 0.014966427123484513 -0.0087161357472650709 0.006963042140467929 -0.00099537489153683572 -0.0036379615845714489 -0.0065265603683085415 -0.0096926911593376037
leaf_count=35 29 35 63 40 69 24 55 24 73 27 57 23 30 32 46 20 110 181 20 24 79 63 28 30 25 49 39 31 51 48
internal_value=0 0.0743317 -0.0658806 0.112344 -0.0410965 -0.14049 0.086982 -0.2431 -0.00564942 -0.0750872 -0.106522 -0.148433 0.00685718 0.0666628 -0.0600018 0.20038 -0.0726208 0.0792606 0.177988 0.203231 -0.00685038 -0.0263081 0.155039 0.0898542 -0.145667 0.0315488 -0.0514896 -0.0784879 -0.100135 -0.123846
internal_count=1460 686 774 465 581 193 361 48 221 340 145 58 241 278 282 104 236 243 84 64 211 132 83 211 88 122 99 60 126 75
shrinkage=0.1


Tree=14
num_leaves=31
num_cat=0
split_feature=27 61 46 18 34 17 4 44 43 1 4 34 51 4 66 62 4 3 43 46 62 43 25 21 20 62 20 47 38 44
split_gain=5.83151 1.52394 1.29571 0.891862 0.721618 0.564178 0.476265 0.463573 0.399363 0.390597 0.382231 0.299026 0.292117 0.240392 0.190834 0.187593 0.183378 0.164017 0.157747 0.151241 0.134418 0.132576 0.132282 0.125037 0.124633 0.119604 0.111991 0.101755 0.113705 0.0999436
threshold=3.5000000000000004 1.5000000000000002 1928.5000000000002 4.5000000000000009 859.50000000000011 5.5000000000000009 5962.5000000000009 680.50000000000011 1487.5000000000002 47.500000000000007 12164.000000000002 218.50000000000003 3.5000000000000004 6333.0000000000009 69.000000000000014 172.00000000000003 12930.500000000002 60.500000000000007 1528.0000000000002 1049.0000000000002 209.00000000000003 1646.5000000000002 1.5000000000000002 1.0000000180025095e-35 1993.5000000000002 429.50000000000006 2005.5000000000002 1.0000000180025095e-35 921.50000000000011 828.50000000000011
decision_type=2 2 2 2 2 2 2 2 2 2 2 2 2 2 2 2 2 8 2 2 2 2 2 2 2 2 2 2 2 2
left_child=1 3 4 9 13 11 20 15 26 -1 17 14 -10 25 -3 -8 -13 -7 -12 27 -5 -6 23 29 -19 -2 -4 28 -17 -15
right_child=2 5 8 6 21 10 7 -9 12 -11 18 16 -14 22 -16 19 -18 24 -20 -21 -22 -23 -24 -25 -26 -27 -28 -29 -30 -31
leaf_value=-0.032504622559063133 -0.0086129300073599039 -0.013147843898170525 0.009870230220549274 -0.021813287704505704 0.0095305397286817133 -0.004954478749574197 -0.013912578755499503 0.0042586026713252066 0.016581329423934223 -0.014579847429488455 0.0047703499445395378 -0.0039181381212295713 0.030790797580519447 0.00031976970867044082 -0.0019133800197215307 -0.014340693341649098 0.0054119590347489486 -0.00047292174040024367 0.014717719387263059 -0.004214797406281486 -0.012081692956562621 0.017496166277576136 0.0097287857585719659 0.0093019326799549159 0.005616688194930582 0.00032109246253534117 0.017123936013928778 -0.0048699083279215676 -0.0053090091043850414 0.0059066855845352016
leaf_count=20 23 54 80 22 48 54 38 39 39 31 44 111 23 111 21 46 26 107 25 139 40 37 35 27 49 43 29 34 20 45
internal_value=0 -0.0484191 0.0824919 -0.0919605 0.049146 -0.0103759 -0.0752127 -0.0594898 0.154449 -0.216092 0.0191725 -0.0492626 0.218526 0.024953 -0.100022 -0.0738615 -0.0214746 -0.00204413 0.0837447 -0.0634848 -0.155348 0.129979 0.0409612 0.0301884 0.0143984 -0.0279228 0.118001 -0.0931429 -0.116038 0.0193138
internal_count=1460 920 540 429 369 491 378 316 171 51 279 212 62 284 75 277 137 210 69 239 62 85 218 183 156 66 109 100 66 156
shrinkage=0.1


Tree=15
num_leaves=31
num_cat=0
split_feature=53 17 18 2 46 46 34 41 4 17 46 46 38 46 4 38 26 38 19 46 19 53 4 43 3 77 4 50 19 20
split_gain=4.80779 1.41369 1.04431 0.926796 0.549098 0.511437 0.389234 0.371687 0.361967 0.300437 0.283721 0.22702 0.21952 0.209736 0.193058 0.174973 0.157911 0.14571 0.139688 0.123665 0.108151 0.105887 0.104657 0.0999392 0.0948988 0.100949 0.0862434 0.0853793 0.0996981 0.0959454
threshold=3.5000000000000004 7.5000000000000009 3.5000000000000004 1.0000000180025095e-35 1485.0000000000002 1777.5000000000002 1225.5000000000002 1.0000000180025095e-35 16837.500000000004 5.5000000000000009 1325.5000000000002 2611.0000000000005 865.00000000000011 1312.0000000000002 7028.0000000000009 484.00000000000006 12.500000000000002 769.00000000000011 2003.5000000000002 2241.5000000000005 1982.5000000000002 4.5000000000000009 12930.500000000002 927.50000000000011 60.500000000000007 2008.5000000000002 11085.500000000002 1.0000000180025095e-35 1945.5000000000002 1995.5000000000002
decision_type=2 2 2 2 2 2 2 2 2 2 2 2 2 2 2 2 10 2 2 2 2 2 2 2 8 2 2 2 2 2
left_child=2 4 -1 5 12 9 11 13 14 15 -9 21 20 23 -6 -4 -7 -16 -8 -19 -2 26 27 -5 -11 -26 -3 28 -17 -30
right_child=1 6 3 7 8 16 18 10 -10 24 -12 -13 -14 -15 17 22 -18 19 -20 -21 -22 -23 -24 -25 25 -27 -28 -29 29 -31
leaf_value=-0.024020013707722054 -0.008826640063228133 0.0046270265608715517 -0.013187622922825918 -0.013898079070311629 -0.00289685644342431 0.0092738257744349548 0.026535704396665097 -0.027273690744879699 0.01890975909307599 -0.0052654374714216426 -0.011023467597128316 0.019934044609821979 0.0016651637824026929 -0.0036545086227226676 -0.00077764562364401565 -0.011252377494115775 0.00020981896857454166 0.0060074850759231808 0.016112356193156707 0.014000744427638975 -0.0014260381425265224 0.01299273046139671 -0.000221922968287403 -0.0066024795523844659 0.0025486214661052352 -0.0028297526459618097 0.010455807312180035 -0.0014166856260114425 -0.0065153238863465109 0.00074712062431942861
leaf_count=29 39 60 29 57 28 40 20 21 20 36 22 21 124 57 28 38 37 161 36 22 40 43 39 28 90 57 44 37 136 21
internal_value=0 0.0609544 -0.0540241 -0.046777 0.0293448 -0.0265046 0.126149 -0.108142 0.059866 -0.0385709 -0.189596 0.102082 -0.00959607 -0.0834765 0.0490517 -0.0580499 0.0491839 0.0594051 0.19835 0.0696842 -0.050795 0.0881881 -0.0501497 -0.114948 -0.00663802 0.00463129 0.0709305 -0.058207 -0.0665633 -0.0554391
internal_count=1460 686 774 745 462 560 224 185 259 483 43 168 203 142 239 300 77 211 56 183 79 147 271 85 183 147 104 232 195 157
shrinkage=0.1


Tree=16
num_leaves=31
num_cat=0
split_feature=53 61 17 46 4 46 46 34 59 44 47 19 34 42 34 46 40 4 4 46 59 62 38 18 59 11 67 26 12 38
split_gain=3.89431 1.15013 0.860966 0.523141 0.5107 0.5003 0.444785 0.39569 0.321722 0.294067 0.269828 0.254271 0.226004 0.228458 0.2247 0.191204 0.18133 0.158189 0.152608 0.129197 0.120703 0.115489 0.109542 0.109327 0.115199 0.10552 0.0875891 0.0872757 0.085636 0.0849428
threshold=3.5000000000000004 2.5000000000000004 4.5000000000000009 1272.5000000000002 9746.0000000000018 2661.0000000000005 814.50000000000011 1064.5000000000002 1992.5000000000002 990.50000000000011 1.0000000180025095e-35 1940.5000000000002 169.00000000000003 1.5000000000000002 222.50000000000003 1945.5000000000002 3.5000000000000004 10205.500000000002 12753.500000000002 1243.0000000000002 1969.5000000000002 389.50000000000006 839.50000000000011 5.5000000000000009 1966.5000000000002 1.0000000180025095e-35 59.500000000000007 253.00000000000003 6.5000000000000009 755.50000000000011
decision_type=2 2 2 2 2 2 2 2 10 2 2 2 2 2 2 2 2 2 2 2 8 2 2 2 10 2 2 10 2 2
left_child=2 3 6 22 8 7 -1 17 12 14 15 16 13 19 23 21 -8 -3 -16 -4 -20 -5 -2 24 -6 -12 -9 -19 -14 -23
right_child=1 5 4 10 9 -7 11 26 -10 -11 25 -13 28 -15 18 -17 -18 27 20 -21 -22 29 -24 -25 -26 -27 -28 -29 -30 -31
leaf_value=-0.026003226116299627 -0.0077312703663665163 -7.0756897427296889e-05 -0.012247557227171704 -0.0057079959701260797 -0.013414607536833502 0.02747621826827526 -0.022518452682665419 0.012776097785681487 0.0017510405666942054 0.011574806193239057 0.006783636495615239 -0.0060851545814817869 6.391095993076933e-05 -0.019677087470931425 -0.0010666459027683646 0.007974665976908742 -0.0092138347122818244 0.0064293163340900924 0.0090108328481780034 -0.0047456310116103856 -0.00036893861732729104 -0.0033833103091456002 -0.00086693116737639208 -0.0011684522292960216 -0.0032728138246706558 0.014030345614351656 0.021319569653520984 0.01332482669742838 -0.005798497989886877 0.0030241622934894016
leaf_count=20 32 24 44 23 24 20 21 20 49 20 159 69 29 22 119 49 20 45 34 48 23 25 85 34 21 23 30 31 177 120
internal_value=0 0.0548589 -0.0486217 0.0313565 -0.0336369 0.126196 -0.122854 0.106387 -0.0579474 -0.00101669 0.0485987 -0.0979127 -0.0695019 -0.105226 -0.0101747 0.024783 -0.160284 0.0700691 0.00971317 -0.0833351 0.0522601 0.00875195 -0.0274436 -0.0544819 -0.0868177 0.0769943 0.179022 0.0924196 -0.0497321 0.0191943
internal_count=1460 686 774 516 644 170 130 150 369 275 399 110 320 114 255 217 41 100 176 92 57 168 117 79 45 182 50 76 206 145
shrinkage=0.1


Tree=17
num_leaves=31
num_cat=0
split_feature=17 17 18 46 2 41 4 54 34 43 33 46 79 4 66 19 50 46 34 37 62 13 44 13 25 1 62 46 43 37
split_gain=3.22141 1.30514 0.780355 0.452016 0.433897 0.311161 0.297873 0.291601 0.216086 0.2118 0.210719 0.194239 0.184294 0.175895 0.163126 0.152159 0.150931 0.115245 0.0947719 0.0941955 0.0901589 0.0874441 0.083668 0.109599 0.0832317 0.0804037 0.0790186 0.074513 0.105564 0.069787
threshold=5.5000000000000009 7.5000000000000009 3.5000000000000004 1489.5000000000002 1.0000000180025095e-35 1.0000000180025095e-35 13899.000000000002 9.5000000000000018 427.50000000000006 1137.5000000000002 1.0000000180025095e-35 1049.0000000000002 1.5000000000000002 7203.5000000000009 99.000000000000014 1940.5000000000002 1.0000000180025095e-35 1312.0000000000002 56.500000000000007 544.50000000000011 561.00000000000011 1.0000000180025095e-35 1034.5000000000002 1.0000000180025095e-35 1.0000000180025095e-35 25.000000000000004 460.50000000000006 1223.5000000000002 847.50000000000011 558.50000000000011
decision_type=2 2 2 2 2 2 2 2 2 2 2 2 2 2 2 2 2 2 2 2 2 2 2 2 2 2 2 2 2 2
left_child=2 3 -1 9 11 17 10 8 20 21 -5 15 -10 -12 16 -4 18 19 -13 -6 -3 27 23 -15 29 -17 -20 28 -2 -11
right_child=1 7 4 6 5 -7 -8 -9 12 24 13 14 -14 22 -16 25 -18 -19 26 -21 -22 -23 -24 -25 -26 -27 -28 -29 -30 -31
leaf_value=-0.02417089253987955 -0.0093496868627205975 -0.0006645931758533191 -0.013890552019659917 0.0061595169570119613 -0.0068531348276883374 -0.019302735068680098 0.010044088387226183 0.018009477316473538 0.0091289457399398085 0.0024966713535832241 -0.0065605981146980982 -0.010675426775083782 0.01879110407943909 0.002093874620434442 0.0016597240487360122 -0.0062832008917637627 0.001542433008159462 -0.003163199773472217 -0.0065274766834571649 -0.014714444946083758 0.006716512420640911 -0.0095546878916634766 0.0073289433319587262 -0.0053864003604520922 0.0039539868053881794 -9.4422531233598979e-05 4.1542214651902525e-05 -5.8658710913732654e-05 -0.0022400320372980786 -0.0038806166364559651
leaf_count=23 31 23 23 105 35 30 63 39 82 32 29 29 26 132 85 109 38 36 47 27 59 22 24 23 71 26 30 60 64 37
internal_value=0 0.0358816 -0.0614923 0.0142538 -0.0534438 -0.103915 0.0377039 0.101332 0.0851648 -0.0135609 0.0250764 -0.0367506 0.11455 0.00664142 -0.0181416 -0.0637219 -0.0386472 -0.0766352 -0.0580314 -0.102766 0.046462 -0.0365494 0.0183463 0.00983898 0.0155031 -0.0509129 -0.0396812 -0.0281756 -0.0456002 -0.00923034
internal_count=1460 922 538 693 515 128 376 229 190 317 313 387 108 208 229 158 144 98 106 62 82 177 179 155 140 135 77 155 95 69
shrinkage=0.1


Tree=18
num_leaves=31
num_cat=0
split_feature=46 17 65 61 55 4 18 20 38 20 54 46 27 17 18 34 43 56 47 38 59 2 37 47 77 18 37 0 34 20
split_gain=2.6211 0.820522 0.784695 0.433415 0.359 0.370763 0.351093 0.331784 0.282481 0.209674 0.204832 0.153282 0.142751 0.138281 0.130232 0.129145 0.12614 0.109816 0.105828 0.0997712 0.096727 0.091365 0.0904577 0.0865145 0.0753771 0.0762679 0.0698155 0.06701 0.066365 0.0620805
threshold=1483.0000000000002 7.5000000000000009 1.0000000180025095e-35 1.5000000000000002 1.0000000180025095e-35 13899.000000000002 5.5000000000000009 1983.5000000000002 633.00000000000011 2004.5000000000002 9.5000000000000018 2293.0000000000005 4.5000000000000009 4.5000000000000009 6.5000000000000009 218.50000000000003 1322.0000000000002 1.5000000000000002 1.0000000180025095e-35 1098.5000000000002 1959.5000000000002 2.5000000000000004 172.50000000000003 1.0000000180025095e-35 2008.5000000000002 5.5000000000000009 475.00000000000006 1014.5000000000001 24.500000000000004 1953.5000000000002
decision_type=2 2 2 2 2 2 2 2 2 2 2 2 2 2 2 2 2 2 2 2 8 2 2 2 2 2 2 2 2 2
left_child=2 4 3 8 5 7 -4 15 22 13 12 21 18 -5 24 -2 28 -7 -3 -6 -8 23 -1 -9 27 -26 -15 29 -11 -10
right_child=1 10 6 9 19 17 20 11 14 16 -12 -13 -14 26 -16 -17 -18 -19 -20 -21 -22 -23 -24 -25 25 -27 -28 -29 -30 -31
leaf_value=-0.0091110418619657005 -0.0057672489402366099 0.0037809184930313587 -0.02174589237838518 -0.0079273548727441159 -0.0091760970223995469 0.0073087368654087192 -0.003266648571430282 0.0010660723477048332 0.0018607608042657377 -0.0018910156859254295 0.016208529650257566 0.012193477109429383 0.014690492614837632 -0.00012857894806413326 -0.0011447421946451702 0.0006780296065861972 0.010380649659782649 0.016076373960822822 0.0093004288379533243 -0.00058799135731533178 -0.012875517222564668 0.0095312915298910381 -0.017861925558896648 0.0054065900074291816 -0.012953815461326117 -0.005365591576824395 -0.0035294729138484167 -0.0079785312552121471 0.0042388351431949757 -0.0046452059694671666
leaf_count=27 58 62 32 36 31 50 22 130 20 33 39 21 28 172 77 67 20 20 79 24 20 21 21 71 27 26 93 40 38 55
internal_value=0 0.0440887 -0.0407196 -0.0301514 0.0218661 0.0314285 -0.138547 0.0187393 -0.0592462 -0.00840449 0.0967604 0.0402748 0.0816855 -0.021121 -0.0455027 -0.0231258 0.0336577 0.0981378 0.0687341 -0.0542856 -0.078423 0.0325502 -0.129396 0.0259929 -0.0611114 -0.0923129 -0.013221 -0.0467315 0.0138975 -0.0291028
internal_count=1460 701 759 685 493 438 74 368 293 392 208 243 169 301 245 125 91 70 141 55 42 222 48 201 168 53 265 115 71 75
shrinkage=0.1


Tree=19
num_leaves=31
num_cat=0
split_feature=17 61 18 46 20 2 34 43 79 57 4 46 34 23 34 18 4 50 62 3 2 59 18 62 1 67 17 0 32 37
split_gain=2.17237 0.85995 0.563653 0.349085 0.336627 0.317326 0.27124 0.252586 0.246719 0.224819 0.164905 0.152307 0.161827 0.129851 0.12706 0.128252 0.122705 0.120295 0.111015 0.109505 0.0893883 0.0771295 0.0746659 0.0714893 0.0678865 0.0667984 0.064608 0.0708129 0.0635222 0.071228
threshold=5.5000000000000009 2.5000000000000004 3.5000000000000004 2661.0000000000005 1986.5000000000002 1.0000000180025095e-35 1064.5000000000002 735.50000000000011 1.0000000180025095e-35 2.5000000000000004 10122.500000000002 1777.5000000000002 559.50000000000011 1.5000000000000002 24.500000000000004 6.5000000000000009 6613.5000000000009 1.0000000180025095e-35 439.50000000000006 75.500000000000014 1.0000000180025095e-35 1936.5000000000002 6.5000000000000009 289.00000000000006 42.500000000000007 59.500000000000007 6.5000000000000009 876.50000000000011 1.5000000000000002 168.50000000000003
decision_type=2 2 2 2 2 2 2 2 2 2 2 2 2 2 2 2 2 2 2 8 2 10 2 2 2 2 2 2 2 2
left_child=2 4 -1 6 8 11 19 -7 10 16 20 12 17 24 -11 26 18 21 -6 -3 -2 -4 -12 -14 -9 -8 -16 -28 29 -23
right_child=1 3 5 -5 9 7 25 13 -10 14 22 -13 23 -15 15 -17 -18 -19 -20 -21 -22 28 -24 -25 -26 -27 27 -29 -30 -31
leaf_value=-0.020366016520268246 -0.00098109308455605069 -0.00108234217815334 -0.010428550975131137 0.021707657836377622 -0.0084264470301568511 -0.016539701687232143 0.0093569734789939098 -0.0069243047414246292 -0.0098309157175883177 0.0021926070925326565 0.0013025727783757691 0.0040321297357501142 -0.0048467049200553447 -0.010186150059929457 0.0013921860619174207 0.012032744189833895 0.0020163357870187611 0.00094342706595650994 0.00040796404902004835 0.0065349650590426538 -0.0068013278654197587 -0.010429119052908694 0.0079380089628764191 0.00027590237524626512 0.00029682494855175418 0.016611558897420765 0.0083634728544961616 0.002959394723477185 -0.00091967109287257448 -0.0048026738367884219
leaf_count=23 92 25 35 20 25 31 22 23 31 111 74 29 36 44 34 34 150 27 33 77 37 30 22 112 30 30 67 38 28 90
internal_value=0 0.0294657 -0.0504969 0.0927866 0.0147359 -0.0436566 0.0766451 -0.0868184 -0.0146735 0.0300384 -0.00315036 -0.0293809 -0.0350272 -0.0617057 0.0483323 0.065275 0.00506019 -0.0528758 -0.0339997 0.0466798 -0.0265046 -0.0620691 0.0282319 -0.00970137 -0.0283687 0.135423 0.0518089 0.0640771 -0.0520855 -0.0620929
internal_count=1460 922 538 174 748 515 154 128 256 492 225 387 358 97 284 173 208 210 58 102 129 183 96 148 53 52 139 105 148 120
shrinkage=0.1


Tree=20
num_leaves=31
num_cat=0
split_feature=30 43 18 4 50 46 18 62 59 19 62 46 56 26 46 77 19 1 59 38 3 77 1 8 46 67 44 0 38 34
split_gain=1.80349 0.624422 0.540163 0.416742 0.361607 0.290754 0.244506 0.221052 0.214001 0.212904 0.169691 0.159631 0.144274 0.125623 0.121733 0.113832 0.111416 0.110448 0.0966204 0.0932538 0.0873104 0.0981725 0.0851662 0.0991795 0.0772223 0.0761755 0.0705798 0.0678722 0.0644411 0.0551165
threshold=3.5000000000000004 1627.0000000000002 3.5000000000000004 5962.5000000000009 1.0000000180025095e-35 2199.0000000000005 5.5000000000000009 209.00000000000003 2007.5000000000002 1921.5000000000002 388.50000000000006 1777.5000000000002 1.5000000000000002 215.50000000000003 1911.5000000000002 2006.5000000000002 1934.5000000000002 105.00000000000001 1941.5000000000002 1201.0000000000002 120.50000000000001 2008.5000000000002 72.500000000000014 1.5000000000000002 1343.5000000000002 49.500000000000007 526.50000000000011 522.50000000000011 1250.0000000000002 218.50000000000003
decision_type=2 2 2 2 2 2 2 2 10 2 2 2 2 10 2 2 2 2 10 2 8 2 2 2 2 2 2 2 2 2
left_child=2 5 -1 7 6 8 9 -4 10 -5 17 16 25 15 18 -11 26 24 -6 -7 21 -17 23 29 -2 -3 -8 -27 -24 -12
right_child=1 12 3 4 14 19 11 -9 -10 13 22 -13 -14 -15 -16 20 -18 -19 -20 -21 -22 -23 28 -25 -26 27 -28 -29 -30 -31
leaf_value=-0.017435142083990354 -0.0051001690844397832 0.0047131557904538657 -0.018734126211659582 -0.015723302896090207 0.0068844154523685572 0.0040381942141062485 -0.0087660132625483386 -0.0066736886152912941 0.0098337241049323773 -0.0018260485158585337 0.0003646082405600178 0.0053095543198287487 0.016477357024326924 0.0023893522657454018 0.0072952995350693958 -0.0063384700585478035 -0.0011625104558228845 -0.010143421398242937 -0.00071708382365970617 0.011567933975081695 -0.0028837548576120756 -0.013193081556567671 -0.0019096261466501699 0.0086582733977896478 0.0033960717776790258 0.014548831366245513 -0.0015422267573220391 0.007871081879647036 0.0026615728745754395 0.0031980422777746612
leaf_count=27 23 42 21 21 20 29 38 55 28 46 122 30 25 20 34 48 173 20 102 38 28 37 98 24 20 23 21 45 45 157
internal_value=0 0.0347157 -0.0355824 -0.0301836 -0.0215902 0.0209732 -0.0356463 -0.100062 0.0132234 -0.0619768 0.00854126 -0.0155467 0.0962006 -0.0508015 0.0200376 -0.0601971 -0.0244228 -0.0400398 0.00529064 0.0830879 -0.0772686 -0.0932224 0.0154036 0.0248968 -0.0114843 0.0806158 -0.0619484 0.101297 -0.00471137 0.0195905
internal_count=1460 739 721 694 618 604 462 76 537 200 509 262 135 179 156 159 232 63 122 67 113 85 446 303 43 110 59 68 143 279
shrinkage=0.1


Tree=21
num_leaves=31
num_cat=0
split_feature=46 38 59 65 46 50 23 30 20 43 20 18 12 47 79 77 46 18 8 55 3 33 19 66 46 0 2 67 1 79
split_gain=1.46496 0.573224 0.466784 0.346709 0.290351 0.243648 0.223887 0.229568 0.176837 0.182872 0.171651 0.131407 0.111171 0.108331 0.103424 0.222265 0.107879 0.101713 0.100737 0.0959542 0.0839951 0.0792395 0.0777475 0.0743564 0.0618899 0.0617327 0.0605112 0.0578399 0.0575184 0.0536289
threshold=1415.0000000000002 1040.5000000000002 1920.5000000000002 1.0000000180025095e-35 2229.5000000000005 1.0000000180025095e-35 4.5000000000000009 4.5000000000000009 1990.5000000000002 628.00000000000011 2003.5000000000002 5.5000000000000009 5.5000000000000009 1.0000000180025095e-35 1.0000000180025095e-35 2008.5000000000002 935.50000000000011 5.5000000000000009 1.0000000180025095e-35 1.0000000180025095e-35 76.500000000000014 2.5000000000000004 1957.5000000000002 175.50000000000003 1077.5000000000002 966.50000000000011 1.0000000180025095e-35 69.500000000000014 65.000000000000014 1.5000000000000002
decision_type=2 2 10 2 2 2 2 2 2 2 2 2 2 2 2 2 2 2 2 2 8 2 2 2 2 2 2 2 2 2
left_child=2 5 3 -1 10 11 7 27 9 -4 18 25 17 20 16 -16 -11 -7 19 -3 -12 28 24 -18 -10 -2 -13 -6 -14 -15
right_child=1 4 8 -5 6 12 -8 -9 22 14 13 26 21 29 15 -17 23 -19 -20 -21 -22 -23 -24 -25 -26 -27 -28 -29 -30 -31
leaf_value=-0.0052833784061173603 -0.0048421289239610945 0.0022225763077219486 -0.01317685391753912 -0.019499721628581657 0.0053641533372380465 0.0026673552975284335 0.0011345239134416694 0.020640520431101324 -0.0061206263722851876 -0.0059873768899108178 0.00041027529257596198 0.0021173906599869954 0.0023844225736236418 0.007342505777998623 -0.002112075872719288 -0.015721648689359428 -0.0024178054890350029 0.010657704087151658 0.0086312635402594293 -0.0047171004238012043 0.0073890304535494319 -0.0039688398382471254 0.00083736700935723492 0.0022868059978752241 -0.00017372148999129423 -0.012116311563877389 -0.0042482130666030571 0.012171950660502681 -0.0028741983750548501 0.01314825454296974
leaf_count=42 28 149 20 29 24 66 21 25 35 73 34 32 104 41 30 20 186 21 21 23 35 36 163 41 35 20 28 26 26 26
internal_value=0 0.0293329 -0.0342073 -0.110901 0.0542221 3.13154e-05 0.102609 0.128163 -0.025177 -0.0387666 0.040103 -0.0397314 0.0170051 0.0673134 -0.0334522 -0.075559 -0.0264344 0.0459606 0.0209289 0.012946 0.0395022 0.00182967 -0.00359705 -0.0156807 -0.0314717 -0.0787304 -0.00853224 0.0890421 0.013327 0.0959548
internal_count=1460 786 674 71 425 361 96 75 603 370 329 108 253 136 350 50 300 87 193 172 69 166 233 227 70 48 60 50 130 67
shrinkage=0.1


Tree=22
num_leaves=31
num_cat=0
split_feature=57 17 38 20 46 51 19 40 37 3 65 19 34 20 46 38 77 76 67 62 54 47 76 18 60 60 77 44 62 24
split_gain=1.21263 0.504028 0.475816 0.319897 0.262546 0.257918 0.202735 0.143782 0.124962 0.16963 0.117467 0.11087 0.118181 0.0901719 0.0899521 0.0784608 0.0775373 0.0755698 0.0673596 0.0650916 0.0641797 0.0661165 0.0638216 0.0928999 0.0543138 0.0471796 0.0470401 0.0451101 0.0449595 0.0410798
threshold=2.5000000000000004 3.5000000000000004 1441.0000000000002 1975.5000000000002 1922.5000000000002 3.5000000000000004 1935.5000000000002 4.5000000000000009 313.00000000000006 117.00000000000001 1.0000000180025095e-35 2004.5000000000002 265.00000000000006 1979.5000000000002 1853.5000000000002 546.50000000000011 2006.5000000000002 7.5000000000000009 98.500000000000014 527.50000000000011 5.5000000000000009 1.0000000180025095e-35 4.5000000000000009 5.5000000000000009 1.0000000180025095e-35 1.0000000180025095e-35 2008.5000000000002 835.00000000000011 624.50000000000011 1.0000000180025095e-35
decision_type=2 2 2 2 2 2 2 2 2 8 2 2 2 2 2 2 2 2 2 2 2 2 2 2 2 2 2 2 2 2
left_child=1 -1 4 6 7 8 10 22 -4 14 -3 12 17 -6 -10 -8 -13 25 -15 -9 21 -17 23 -2 -22 -5 -24 -14 -21 -27
right_child=2 3 5 11 13 -7 15 19 9 -11 -12 16 27 18 -16 20 -18 -19 -20 28 24 -23 26 -25 -26 29 -28 -29 -30 -31
leaf_value=-0.017403622666049914 -0.0088766121995701858 -0.0064125426717706636 0.011034555031972773 0.0011911201623401471 8.7257719508582551e-05 0.015849738143352343 -0.0087204253336844537 0.00087602192570161806 0.0040464039636780016 -0.0026727878721430898 -0.015395455334025124 -0.0020752922254836277 -0.00036438459048732005 0.0045128548047850261 0.01031591586121495 -0.0068615409808012008 0.0051445376862972684 -0.0078750851420409159 0.0096160129336088796 0.0083474989616028651 0.0018151780389047958 -0.0016301074726652589 0.0003472532122032135 -0.00019296523321165959 -0.0027589215201877016 -0.0071265394920888153 -0.0036012823661704637 0.0040900848590983791 0.0019477442638682471 -0.0019505179800984006
leaf_count=23 28 37 34 28 31 29 26 138 70 28 24 21 181 81 34 61 51 32 38 23 37 40 96 22 87 23 44 26 21 46
internal_value=0 -0.0283109 0.0293375 -0.0236558 0.0135925 0.0714856 -0.0477599 -0.000648504 0.0562847 0.04236 -0.099468 -0.0052232 -0.0128541 0.0489103 0.0609605 -0.0351934 0.0303875 -0.0366113 0.0614243 0.0194388 -0.0291832 -0.0478969 -0.01989 -0.0505581 -0.0139407 -0.0227096 -0.00893715 0.00195114 0.0529307 -0.0367586
internal_count=1460 743 717 720 522 195 312 372 166 132 61 408 336 150 104 251 72 129 119 182 225 101 190 50 124 97 140 207 44 69
shrinkage=0.1


Tree=23
num_leaves=31
num_cat=0
split_feature=46 18 32 65 13 54 18 38 55 46 79 32 59 18 67 16 43 4 62 12 46 20 12 62 20 59 0 16 46 76
split_gain=1.00595 0.381744 0.34536 0.303983 0.242397 0.444466 0.195771 0.181151 0.158421 0.1562 0.141645 0.136995 0.119785 0.109505 0.120792 0.102205 0.0854457 0.0844284 0.0821116 0.0703748 0.0645384 0.0617664 0.0592474 0.0596127 0.0655146 0.0521465 0.0492106 0.046031 0.0442474 0.0865342
threshold=1483.0000000000002 3.5000000000000004 1.0000000180025095e-35 1.0000000180025095e-35 1.0000000180025095e-35 9.5000000000000018 5.5000000000000009 756.50000000000011 1.0000000180025095e-35 1144.5000000000002 1.0000000180025095e-35 1.5000000000000002 2007.5000000000002 6.5000000000000009 53.500000000000007 4.5000000000000009 1120.5000000000002 13831.000000000002 549.00000000000011 2.5000000000000004 1763.0000000000002 2003.5000000000002 3.5000000000000004 527.50000000000011 1956.5000000000002 1959.5000000000002 576.50000000000011 1.5000000000000002 1853.5000000000002 8.5000000000000018
decision_type=2 2 2 2 2 2 2 2 2 2 2 2 8 2 2 2 2 2 2 2 2 2 2 2 2 8 2 2 2 2
left_child=1 -1 7 9 5 11 -5 16 13 10 15 17 18 14 27 -3 -2 -4 22 -16 -15 -21 -11 24 -24 -8 -23 -9 -13 -30
right_child=2 3 4 6 -6 -7 25 8 -10 12 -12 28 -14 20 19 -17 -18 -19 -20 21 -22 26 23 -25 -26 -27 -28 -29 29 -31
leaf_value=-0.015502992077645932 -0.0012719245264306664 -0.0027662592420534537 0.0055851444596191867 -0.016081373461360193 -0.0044100654015148226 0.01889972699662814 -0.0012443705864081328 0.00067080649610592482 -0.0042823490145540728 0.003164109805840309 -0.0084046025608861177 0.0018195304279161489 0.0075072133541107177 0.0026408071656161074 -0.00064579152773755304 0.0046442711888812485 -0.0087504345500333744 0.012537990095874958 0.0027357309127182816 0.0032063185196855798 0.0097227910773888728 0.011493245278307725 -0.0049878066650738849 -0.0065042506457151225 -0.00038994168233849841 -0.0082995957182720303 0.0046472772179792328 -0.0038543960703204256 0.0085420334896565801 0.00025237970286980273
leaf_count=22 50 268 40 23 22 26 22 114 37 27 43 86 20 22 27 20 22 31 64 69 31 21 38 24 168 20 21 28 34 20
internal_value=0 -0.0252261 0.0273133 -0.0213514 0.0563093 0.0656301 -0.0866523 0.0103224 0.0192529 -0.0150351 -0.0305097 0.0504284 -1.42775e-05 0.0261503 0.0182607 -0.0225164 -0.0355702 0.0862089 -0.00469256 0.0393298 0.067831 0.0504673 -0.0126738 -0.017876 -0.0123809 -0.04604 0.0807026 -0.00221487 0.0322826 0.0547179
internal_count=1460 759 701 737 259 237 65 442 370 672 331 211 341 333 280 288 72 71 321 138 53 111 257 230 206 42 42 142 140 54
shrinkage=0.1


Tree=24
num_leaves=31
num_cat=0
split_feature=57 17 38 20 51 12 59 19 62 59 79 4 24 18 65 19 46 37 59 47 62 3 34 0 79 4 56 38 66 37
split_gain=0.828131 0.373543 0.321539 0.220753 0.190016 0.180468 0.180224 0.156427 0.102031 0.129046 0.0980355 0.105072 0.0945426 0.0942031 0.0882297 0.078578 0.0745824 0.109224 0.0885733 0.0711552 0.0635397 0.0622419 0.0598662 0.0590921 0.0742352 0.0681824 0.0583084 0.0542855 0.0535665 0.0454442
threshold=2.5000000000000004 3.5000000000000004 1441.0000000000002 1975.5000000000002 3.5000000000000004 3.5000000000000004 1985.5000000000002 1935.5000000000002 876.00000000000011 2007.5000000000002 1.0000000180025095e-35 7940.0000000000009 4.5000000000000009 6.5000000000000009 1.0000000180025095e-35 1910.5000000000002 1201.5000000000002 598.50000000000011 2007.5000000000002 1.0000000180025095e-35 402.50000000000006 32.500000000000007 291.00000000000006 816.50000000000011 1.0000000180025095e-35 7940.0000000000009 1.5000000000000002 951.50000000000011 169.50000000000003 99.500000000000014
decision_type=2 2 2 2 2 2 10 2 2 8 2 2 2 2 2 2 2 2 8 2 2 10 2 2 2 2 2 2 2 2
left_child=1 -1 5 7 8 12 10 14 9 26 11 -7 22 20 -3 -5 17 -17 19 21 27 -18 -2 24 29 -25 -4 -13 -8 -9
right_child=2 3 4 15 -6 6 28 23 -10 -11 -12 13 -14 -15 -16 16 18 -19 -20 -21 -22 -23 -24 25 -26 -27 -28 -29 -30 -31
leaf_value=-0.014884804351174313 -0.00016504231607541444 -0.005420210027586035 0.0032278321879784192 -0.0062206558496902958 0.013357696364280478 -0.0047477398228058416 0.0015918045708590923 -0.0075101456488482661 -0.0019301191903650762 0.012986044930294156 -0.0075782827780737239 -0.0077369595013026676 0.010545516710566439 0.0044621023483202979 -0.013205339000948394 -0.00030765648869042895 -0.0055839988319203258 -0.0066128806413164268 0.0067990287672728307 0.0026407243871409223 0.00062315975668538804 -1.0907611452932885e-05 0.0054726708202603429 -0.004423946004664136 -0.0094642972624253332 0.0005470914826667928 0.0085491128301677793 -0.00077498022001236682 0.0055062174830319624 -0.002229403485332362
leaf_count=23 31 37 99 22 29 53 122 20 21 20 24 21 23 42 24 116 25 36 24 84 85 101 48 43 23 77 26 24 49 88
internal_value=0 -0.0233958 0.0242442 -0.0193883 0.058892 0.0113011 0.00213802 -0.0394118 0.0458446 0.0552795 -0.0150284 -0.00854796 0.0490313 0.00344774 -0.0848321 -0.00407623 -0.000763108 -0.01801 0.01044 0.00386282 -0.00985439 -0.0111668 0.032604 -0.0283734 -0.0430587 -0.012342 0.0433466 -0.040239 0.0271348 -0.0320732
internal_count=1460 743 717 720 195 522 420 312 166 145 249 225 102 172 61 408 386 152 234 210 130 126 79 251 131 120 125 45 171 108
shrinkage=0.1


Tree=25
num_leaves=31
num_cat=0
split_feature=30 46 43 18 2 46 38 4 50 62 46 26 79 77 19 34 1 26 34 79 62 59 38 32 44 57 26 38 46 4
split_gain=0.683819 0.308052 0.273224 0.223763 0.205127 0.133372 0.124835 0.121553 0.11978 0.112685 0.176631 0.0933378 0.091673 0.0952292 0.086434 0.0692524 0.0675256 0.0628478 0.0576212 0.0557553 0.0496776 0.0495339 0.0489228 0.0476944 0.0483055 0.0468889 0.0447701 0.05231 0.04464 0.0422869
threshold=3.5000000000000004 770.50000000000011 1627.0000000000002 6.5000000000000009 1.0000000180025095e-35 1800.5000000000002 685.00000000000011 4775.0000000000009 1.0000000180025095e-35 876.00000000000011 2293.0000000000005 251.00000000000003 1.0000000180025095e-35 2007.5000000000002 2006.5000000000002 24.500000000000004 65.000000000000014 219.50000000000003 212.50000000000003 1.0000000180025095e-35 409.50000000000006 1952.5000000000002 910.50000000000011 1.0000000180025095e-35 467.50000000000006 3.5000000000000004 177.00000000000003 1256.5000000000002 1509.5000000000002 9852.0000000000018
decision_type=2 2 2 2 2 2 2 2 2 2 2 10 2 2 2 2 2 10 2 2 2 8 2 2 2 2 10 2 2 2
left_child=1 -1 7 4 8 16 -6 20 12 10 19 14 17 -14 18 -16 22 23 25 -4 -2 -8 -5 24 -3 -9 27 28 -20 -25
right_child=2 3 9 5 6 -7 21 11 -10 -11 -12 -13 13 -15 15 -17 -18 -19 26 -21 -22 -23 -24 29 -26 -27 -28 -29 -30 -31
leaf_value=-0.014124966324085282 -0.0063618838293699638 -0.0042595474282279616 0.0040682170410603425 -0.0027653192014743884 -0.011502998091868666 0.0060938440334911536 -0.0013120192793818813 -0.001974608722626402 0.0011262061714200843 -0.00052665990023385921 0.015274373822562075 0.0049975229572000786 -0.0026516667168055264 -0.012293340670876205 0.0016965821639711399 0.0098270524659892552 0.0034109581952706278 0.0028590616262094541 -0.0002291612618137151 0.0098495462549511685 -0.00084272198162156436 -0.0066874031210318215 0.00099926371580555244 -0.00292857133529403 0.0004313976750171815 0.0017952228503121178 -0.0016033850733519477 0.0049203666107912013 0.0032502901895013433 0.0032716415293345398
leaf_count=21 21 141 69 90 38 39 30 101 95 21 23 79 21 20 22 20 38 22 82 22 73 40 56 22 26 49 34 56 67 22
internal_value=0 -0.0219103 0.0213766 -0.0183301 -0.0305548 0.00781867 -0.0688862 0.0122862 -0.0193359 0.062048 0.074448 0.0183766 -0.0299447 -0.0735492 0.0125847 0.0556823 -0.00344041 -0.0222718 0.00793147 0.054659 -0.0207573 -0.0438367 -0.0132137 -0.027575 -0.0352922 -0.0074313 0.0175734 0.0231473 0.0133542 0.00171535
internal_count=1460 721 739 700 477 223 108 604 369 135 114 510 274 41 431 42 184 233 389 91 94 70 146 211 167 150 239 205 149 44
shrinkage=0.1


Tree=26
num_leaves=31
num_cat=0
split_feature=30 18 43 4 18 19 62 12 37 62 4 67 38 37 26 13 26 77 59 34 0 0 77 79 1 19 18 59 59 34
split_gain=0.553893 0.257385 0.221453 0.19951 0.160577 0.151944 0.131922 0.12169 0.118667 0.138026 0.103512 0.0810245 0.0825136 0.0809117 0.0809105 0.0797238 0.0742368 0.0784295 0.0694893 0.0652481 0.0623918 0.10983 0.206526 0.0555291 0.0535083 0.0861012 0.0433249 0.0865857 0.0817004 0.0464142
threshold=3.5000000000000004 3.5000000000000004 1646.5000000000002 5962.5000000000009 5.5000000000000009 1921.5000000000002 209.00000000000003 3.5000000000000004 313.00000000000006 854.50000000000011 4775.0000000000009 47.500000000000007 1858.0000000000002 881.00000000000011 251.00000000000003 2.5000000000000004 215.50000000000003 2006.5000000000002 2006.5000000000002 24.500000000000004 306.50000000000006 816.50000000000011 2008.5000000000002 1.0000000180025095e-35 55.000000000000007 1927.5000000000002 6.5000000000000009 1976.5000000000002 1973.5000000000002 329.50000000000006
decision_type=2 2 2 2 2 2 2 2 2 2 2 2 2 2 10 2 10 2 10 2 2 2 2 2 2 2 2 8 8 2
left_child=1 -1 10 6 5 -5 -3 -6 -4 11 -2 -10 -13 15 18 23 17 -7 26 -20 -19 22 -22 24 25 -9 28 -28 -12 -30
right_child=2 3 8 4 7 16 -8 13 9 -11 14 12 -14 -15 -16 -17 -18 20 19 -21 21 -23 -24 -25 -26 -27 27 -29 29 -31
leaf_value=-0.011550973394251844 -0.0018919966552608744 -0.013176729691968786 0.011922755679115653 -0.010891820413631979 0.0062201014752645278 0.00026541421302007858 -0.0038597614880100913 -0.0058976457894055383 0.0013571841521188618 -0.003210427700541914 -0.0057240959722548723 0.0050606147661297167 0.012966959211255678 0.0041104022523780403 0.0045600296354415008 -0.0053470367307240588 0.0019776725646806883 -0.00027082499957853753 0.0014690636345185339 0.0091321745817549531 -0.0025106397812210378 -0.0028657498446279274 -0.016709525585174561 -0.0050104893786324699 0.0025667104432691955 0.00025610107699726041 0.0078135168296284974 -0.00044154978477982458 -0.00063138282782257567 0.0017957287244163298
leaf_count=27 95 21 25 22 32 54 55 27 25 20 21 33 22 38 83 34 36 31 25 20 21 67 20 22 70 144 24 27 142 177
internal_value=0 -0.0197193 0.019239 -0.0159926 -0.0100467 -0.0295381 -0.0643419 0.00328393 0.0576051 0.0421994 0.0114283 0.0607754 0.0822315 -0.00234397 0.0169834 -0.00790297 -0.0219121 -0.0296882 0.0115356 0.0487489 -0.0422529 -0.0536036 -0.0943693 -0.00201213 0.00237809 -0.00715543 0.00725279 0.0344319 0.00317593 0.00715322
internal_count=1460 721 739 694 618 251 76 367 125 100 614 80 55 335 519 297 229 193 436 45 139 108 41 263 241 171 391 51 340 319
shrinkage=0.1


Tree=27
num_leaves=31
num_cat=0
split_feature=20 46 43 4 18 47 19 10 59 1 13 0 20 34 4 70 19 59 4 26 77 79 76 19 66 79 3 78 13 38
split_gain=0.480696 0.287414 0.287165 0.182476 0.136301 0.131513 0.12649 0.104935 0.110819 0.0988164 0.0903876 0.0876732 0.082157 0.0864445 0.0857401 0.0796199 0.0587082 0.0539971 0.0561149 0.0519704 0.0647234 0.108405 0.0582691 0.0643434 0.0515835 0.0503157 0.0471132 0.0404876 0.0373791 0.0340263
threshold=1992.5000000000002 1898.5000000000002 614.00000000000011 18625.000000000004 5.5000000000000009 1.0000000180025095e-35 1921.5000000000002 2.5000000000000004 2006.5000000000002 47.500000000000007 2.5000000000000004 1320.5000000000002 1997.5000000000002 985.50000000000011 11519.000000000002 141.00000000000003 2005.5000000000002 1950.5000000000002 7460.5000000000009 227.00000000000003 2006.5000000000002 1.0000000180025095e-35 9.5000000000000018 1948.5000000000002 159.50000000000003 1.0000000180025095e-35 68.500000000000014 1.0000000180025095e-35 1.0000000180025095e-35 601.00000000000011
decision_type=2 2 2 2 2 2 2 2 10 2 2 2 2 2 2 2 2 8 2 10 2 2 2 2 2 2 10 2 2 2
left_child=2 5 -1 4 6 11 -4 8 24 -3 17 16 14 25 -11 19 28 18 -6 20 -8 22 23 -22 26 -14 -7 -18 29 -2
right_child=1 9 3 -5 10 7 15 -9 -10 12 -12 -13 13 -15 -16 -17 27 -19 -20 -21 21 -23 -24 -25 -26 -27 -28 -29 -30 -31
leaf_value=-0.012858576385769994 -0.0039930816118915876 0.010307899252098476 -0.0095547225294185106 0.0057560854462666835 -0.00052019075118005275 -0.0014175042206789517 -0.00094824760566715764 0.0091230086073101988 0.0078745725600478742 0.0034122187178581955 -0.0054629638841781286 -0.0061681833079395201 0.0027928710520888373 -0.0031939998082816598 0.012671813986962661 0.0032955941788497425 -0.0005911760535091162 -0.00047007674615628817 0.0058475030464075145 0.00022474999133875116 -0.0078205518668428772 -0.010190332737943994 -0.0081856432532810657 -0.0017927977363620185 0.0034172824371835001 0.0082315803457855847 0.0024401080795238769 0.0046182042503779804 -0.00430744242661729 2.3528386055272418e-05
leaf_count=23 24 31 29 33 25 93 67 21 26 20 31 27 75 20 20 21 25 222 31 41 21 29 23 113 59 22 48 37 29 174
internal_value=0 0.0176304 -0.0186748 -0.0149897 -0.0186561 0.00632569 -0.032349 0.0236129 0.0173299 0.0514843 -0.00341233 -0.00718679 0.0412969 0.0279214 0.0804202 -0.0265307 -0.00209556 0.00229895 0.0300478 -0.0307798 -0.036132 -0.0457316 -0.0353559 -0.0273745 0.00934585 0.0402639 -0.00104275 0.0251765 -0.00954431 -0.00463333
internal_count=1460 751 709 686 653 563 344 247 226 188 309 316 157 117 40 315 289 278 56 294 253 186 157 134 200 97 141 62 227 198
shrinkage=0.1


Tree=28
num_leaves=31
num_cat=0
split_feature=46 32 62 13 54 32 12 43 62 24 55 19 73 33 23 2 0 19 4 20 34 12 0 57 66 79 44 67 24 67
split_gain=0.416195 0.216445 0.183628 0.137059 0.289644 0.132306 0.115757 0.111643 0.0939869 0.091326 0.0869268 0.110472 0.097823 0.0824482 0.0644811 0.0638953 0.0767802 0.0572899 0.0498339 0.049133 0.0468493 0.0459351 0.0388692 0.0384555 0.0514911 0.0506 0.0365429 0.0396828 0.03442 0.0329683
threshold=1144.5000000000002 1.0000000180025095e-35 226.50000000000003 1.0000000180025095e-35 9.5000000000000018 1.5000000000000002 5.5000000000000009 744.50000000000011 798.00000000000011 4.5000000000000009 1.5000000000000002 1920.5000000000002 -1.0000000180025095e-35 1.5000000000000002 3.5000000000000004 1.0000000180025095e-35 588.50000000000011 1956.5000000000002 8094.5000000000009 1981.5000000000002 764.00000000000011 13.500000000000002 636.50000000000011 3.5000000000000004 118.50000000000001 1.5000000000000002 815.00000000000011 97.000000000000014 3.5000000000000004 52.500000000000007
decision_type=2 2 2 2 2 2 2 2 2 2 2 2 2 2 2 2 2 2 2 2 2 2 2 2 2 2 2 2 2 2
left_child=2 6 7 4 5 14 9 -1 10 26 11 12 -8 18 -3 -15 -17 -12 -4 20 21 28 -9 29 -25 -26 -2 -28 -13 -7
right_child=1 3 13 -5 -6 23 8 22 -10 -11 17 19 -14 15 -16 16 -18 -19 -20 -21 -22 -23 -24 24 25 -27 27 -29 -30 -31
leaf_value=-0.01395913259475492 -0.00012800306321878452 0.0041775864208050606 -0.002081184031895215 -0.0028548927680175341 0.013772168807470456 -0.0011548228716005532 -0.0017818405483968746 -0.0016908994474215434 0.0054796208748998853 0.0068045557983329192 -0.0018909349286166781 -0.001178671646101231 -0.010383835237007588 -0.002186286596245029 0.0099450855815250965 -0.0030729555861196585 -0.01124774763477035 -0.0092859192285686728 0.0014733072689013193 0.0010396379906044456 -0.0056455645333265978 -0.0036313319550026792 -0.007782078334342012 0.00022761748098817315 0.0024639241754655442 0.0090021405916195368 0.0012206539205025608 0.0066538964194478474 0.0020161347256119674 0.0021780106882729076
leaf_count=20 96 63 76 36 26 71 39 20 23 34 22 77 20 117 28 27 20 20 82 201 21 40 22 38 29 20 41 20 60 51
internal_value=0 0.0100863 -0.0282626 0.030005 0.0364711 0.0276961 -1.25679e-05 -0.0780978 -0.00770724 0.0210571 -0.0105824 -0.00658954 -0.0469777 -0.0186671 0.059522 -0.0343732 -0.0655159 -0.0541236 -0.00236448 -0.000617357 -0.011798 -0.0064996 -0.0488152 0.0138389 0.0299018 0.0513258 0.0108813 0.0300204 0.00220514 0.00238411
internal_count=1460 1076 384 362 326 300 714 62 523 191 500 458 59 322 91 164 47 42 158 399 198 177 42 209 87 49 157 61 137 122
shrinkage=0.1


Tree=29
num_leaves=31
num_cat=0
split_feature=46 32 79 19 13 54 32 18 51 19 18 68 46 13 55 13 59 63 37 16 33 23 19 66 70 46 46 57 66 79
split_gain=0.337118 0.17532 0.154936 0.139837 0.111017 0.234612 0.107168 0.0953564 0.0869004 0.0790995 0.0825967 0.0834985 0.0779812 0.0882827 0.0809889 0.0712799 0.0563407 0.0674653 0.0596107 0.0533718 0.0524969 0.0522297 0.0403172 0.0441253 0.0394998 0.0355532 0.0319121 0.0311489 0.0417078 0.040986
threshold=1144.5000000000002 1.0000000180025095e-35 1.0000000180025095e-35 1953.5000000000002 1.0000000180025095e-35 9.5000000000000018 1.5000000000000002 4.5000000000000009 3.5000000000000004 1946.5000000000002 6.5000000000000009 33.000000000000007 2586.0000000000005 2.5000000000000004 1.5000000000000002 4.5000000000000009 1948.5000000000002 2.5000000000000004 76.500000000000014 4.5000000000000009 1.0000000180025095e-35 3.5000000000000004 1953.5000000000002 124.50000000000001 141.00000000000003 1736.0000000000002 1627.5000000000002 3.5000000000000004 118.50000000000001 1.5000000000000002
decision_type=2 2 2 2 2 2 2 2 2 2 2 2 2 2 2 2 8 2 2 2 2 2 2 2 2 2 2 2 2 2
left_child=2 7 9 -4 5 6 21 8 -2 10 11 -1 13 14 16 -15 25 -18 -19 22 -20 26 -11 -24 -22 -9 -3 -8 -29 -30
right_child=1 4 3 -5 -6 -7 27 12 -10 19 -12 -13 -14 15 -16 -17 17 18 20 -21 24 -23 23 -25 -26 -27 -28 28 29 -31
leaf_value=-0.010822231834754349 -0.0085676341239983838 0.0011610040803336434 -0.013949838966419477 -0.0032349663718346635 -0.0025694035265284281 0.012394951908992461 0.0002145697498220767 0.0017806097320930731 0.00024086422220404659 0.00208332851024655 -0.00047849649718652168 -0.0022972906695213169 0.0057782663162797695 -0.0075670340779022535 -0.00502436767744187 -0.00016226152455111822 -0.0048491930977130927 -0.0035160175729260753 0.0025431356781141471 0.0040366594374063427 -0.00015264012683117827 0.008950576991108912 -0.002804979191205348 0.00036807408046332147 0.0040710270950512495 0.0067231495589525868 0.0057089454879663513 0.00020485563497794305 0.0022175317863002419 0.0081019265530630959
leaf_count=27 24 27 21 29 36 26 122 43 21 30 30 20 25 26 26 26 24 33 134 20 286 28 144 63 24 22 36 38 29 20
internal_value=0 0.00907767 -0.0254364 -0.0773521 0.0270045 0.032824 0.0249265 -1.1311e-05 -0.04457 -0.0176646 -0.0457793 -0.071946 0.00298591 0.000858708 0.00432876 -0.0386465 0.00683562 0.00324193 0.00584489 -0.00924106 0.00889256 0.0535698 -0.0134274 -0.0183927 0.00174353 0.0345347 0.0375983 0.012455 0.0269117 0.0461933
internal_count=1460 1076 384 50 362 326 300 714 45 334 77 47 669 644 592 52 566 501 477 257 444 91 237 207 310 65 63 209 87 49
shrinkage=0.1


Tree=30
num_leaves=31
num_cat=0
split_feature=57 17 13 38 12 47 2 3 66 65 40 55 4 8 62 18 40 70 37 0 76 3 33 51 23 38 76 51 19 24
split_gain=0.278245 0.189901 0.126647 0.21287 0.110541 0.11049 0.0937018 0.0912448 0.0888193 0.123508 0.0996866 0.0763425 0.0752767 0.100872 0.0643394 0.0584425 0.0628616 0.0623013 0.0553519 0.050527 0.0456561 0.0465617 0.044776 0.0397024 0.0466876 0.036297 0.0341821 0.0316432 0.0415604 0.0309687
threshold=2.5000000000000004 3.5000000000000004 1.0000000180025095e-35 1928.0000000000002 10.500000000000002 1.0000000180025095e-35 2.5000000000000004 78.500000000000014 57.500000000000007 1.0000000180025095e-35 3.5000000000000004 1.0000000180025095e-35 7203.5000000000009 1.5000000000000002 549.00000000000011 6.5000000000000009 4.5000000000000009 108.00000000000001 1.0000000180025095e-35 1275.5000000000002 4.5000000000000009 98.500000000000014 1.0000000180025095e-35 3.5000000000000004 1.0000000180025095e-35 1268.5000000000002 6.5000000000000009 2.5000000000000004 1958.5000000000002 5.5000000000000009
decision_type=2 2 2 2 2 2 2 8 2 2 2 2 2 2 2 2 2 2 2 2 2 8 2 2 2 2 2 2 2 2
left_child=1 -1 3 12 14 6 8 -6 9 11 -11 18 25 15 -4 16 20 22 -3 23 -14 -22 -18 24 -20 -2 -24 -10 -29 -7
right_child=2 5 4 -5 7 29 -8 -9 27 10 -12 -13 13 -15 -16 -17 17 -19 19 -21 21 -23 26 -25 -26 -27 -28 28 -30 -31
leaf_value=-0.010300940493850606 -0.0025311428332151693 -0.0063010404172998205 -0.0017137470052522774 0.0097514441737792251 -0.00078869425226002943 0.00083596065022793493 0.002714808881252171 -0.010024171645003979 -0.0031346393403627222 -0.013345799927178416 -0.0037134629197349898 -0.0079327398624930833 -0.0039455862890463321 0.0066899594856381778 0.0052266076736321512 0.0042615270749700035 0.0029634474398859837 0.0072505312838724682 0.0015010233136126773 -0.0059918089725431948 0.002258205811135824 -0.0020020752649187396 -0.0019623493259448722 0.0031708593205125495 -0.0025299948451848811 0.0014387854928704534 0.0016232651902274007 0.0041512736371563134 -0.00061467989580705768 -0.003077531794340096
leaf_count=23 61 26 34 33 20 250 38 23 31 21 22 24 32 42 22 68 111 21 40 21 58 46 46 22 102 37 63 24 77 22
internal_value=0 -0.0135613 0.0140531 0.0193725 -0.0191527 -0.010704 -0.0203565 -0.057286 -0.0247593 -0.0349014 -0.0841763 -0.0258851 0.0149645 0.0200531 0.0101282 0.0156316 0.0107645 0.0204648 -0.0198064 -0.0137345 -0.00642487 0.00373851 0.0154973 -0.00782071 -0.013945 -0.0103229 0.0011007 -0.00339952 0.00517824 0.00519428
internal_count=1460 743 717 618 99 720 448 43 410 278 43 235 585 487 56 445 377 241 211 185 136 104 220 164 142 98 109 132 101 272
shrinkage=0.1


Tree=31
num_leaves=31
num_cat=0
split_feature=46 53 4 62 12 4 55 43 19 26 73 38 59 33 56 18 38 3 26 40 59 37 46 4 20 77 66 19 12 19
split_gain=0.234112 0.125051 0.142765 0.12412 0.0954811 0.116436 0.0894303 0.0793277 0.0775187 0.0643226 0.06025 0.0599995 0.0662261 0.0560335 0.0523721 0.0505197 0.0504441 0.0499767 0.0592218 0.0501321 0.056322 0.056127 0.0560726 0.0404559 0.0375874 0.050757 0.041385 0.0366898 0.0320459 0.0299951
threshold=1153.0000000000002 4.5000000000000009 25379.000000000004 226.50000000000003 10.500000000000002 12854.000000000002 1.0000000180025095e-35 744.50000000000011 1920.5000000000002 47.000000000000007 -1.0000000180025095e-35 601.00000000000011 2007.5000000000002 1.5000000000000002 1.0000000180025095e-35 5.5000000000000009 633.00000000000011 90.500000000000014 253.00000000000003 3.5000000000000004 2006.5000000000002 358.00000000000006 1398.0000000000002 8094.5000000000009 1996.5000000000002 2007.5000000000002 249.00000000000003 1940.5000000000002 8.5000000000000018 1940.5000000000002
decision_type=2 2 2 2 2 2 2 2 2 10 2 2 8 2 2 2 2 10 10 2 10 2 2 2 2 2 2 2 2 2
left_child=3 2 6 7 5 -3 8 -1 10 14 -2 -10 15 23 -8 17 -15 19 -19 21 -21 -13 -23 -5 26 -26 28 -18 29 -17
right_child=1 4 -4 13 -6 -7 9 -9 11 -11 -12 12 -14 16 -16 24 27 18 -20 20 -22 22 -24 -25 25 -27 -28 -29 -30 -31
leaf_value=-0.011359609812498093 -0.00075608976915384006 0.0030848788095560547 0.0080460120264130349 -0.0016263853972747874 -0.0010747076636180282 0.011596598062664271 -0.0044982505976222456 -0.0037364759038440716 -0.0031618711602479583 -0.0074590006316809553 -0.0068878274495628757 0.0015332151367329063 0.0051425345084705467 -0.0073086924501694741 0.0017474049445370149 0.005357132009452298 -0.0051425895693808284 0.00029452905107877757 0.0064197782437851727 0.00072048801769259091 -0.004201947391033173 -0.00068358480650931603 -0.007096067781870565 0.0015363388703138168 0.0080240689641372723 0.0020169078120092403 0.0055030498094856741 -0.0011725840484390481 -0.00081610013625726832 0.00074638316440287726
leaf_count=20 59 45 24 78 25 25 25 43 36 23 22 25 37 20 29 21 29 38 27 331 25 25 30 84 22 39 20 118 72 43
internal_value=0 0.00767172 0.00429058 -0.0209015 0.0423018 0.0612478 0.00236427 -0.0615652 0.00524894 -0.0303037 -0.024215 0.00826611 0.0101679 -0.0131149 -0.011441 0.00804182 -0.0259685 0.00252131 0.0283886 -0.00133506 0.00374811 -0.0239552 -0.041813 0.000135457 0.0207873 0.0418342 0.0125574 -0.0195578 0.0063114 0.0225929
internal_count=1460 1068 973 392 95 70 949 63 872 77 81 791 755 329 54 718 167 501 65 436 356 80 55 162 217 61 156 147 136 64
shrinkage=0.1


Tree=32
num_leaves=31
num_cat=0
split_feature=20 43 70 34 4 18 68 46 67 4 66 12 51 62 46 43 79 13 46 59 76 59 26 76 78 79 67 24 19 37
split_gain=0.194887 0.151908 0.121923 0.103577 0.0865086 0.0893375 0.0813143 0.0727018 0.0919234 0.108146 0.0695262 0.055729 0.0744182 0.0596473 0.0555423 0.0441988 0.0830415 0.0418725 0.041328 0.0376039 0.0358521 0.0354153 0.0345106 0.0360836 0.0337057 0.0332318 0.0288851 0.028624 0.0256656 0.0228419
threshold=1992.5000000000002 614.00000000000011 160.50000000000003 24.500000000000004 18625.000000000004 5.5000000000000009 169.50000000000003 1646.5000000000002 167.00000000000003 14826.500000000002 69.000000000000014 12.500000000000002 2.5000000000000004 319.50000000000006 1223.5000000000002 832.50000000000011 1.0000000180025095e-35 2.5000000000000004 1700.5000000000002 1945.5000000000002 6.5000000000000009 2005.5000000000002 91.000000000000014 8.5000000000000018 1.0000000180025095e-35 1.5000000000000002 33.500000000000007 4.5000000000000009 1955.5000000000002 149.50000000000003
decision_type=2 2 2 2 2 2 2 2 2 2 2 2 2 2 2 2 2 2 2 8 2 8 10 2 2 2 2 2 2 2
left_child=1 -1 3 10 5 6 11 20 9 24 14 15 -13 -14 -2 -3 22 19 26 -7 27 -22 23 28 -9 -12 -16 29 -17 -5
right_child=2 4 -4 7 -6 17 -8 8 -10 -11 25 12 13 -15 18 16 -18 -19 -20 -21 21 -23 -24 -25 -26 -27 -28 -29 -30 -31
leaf_value=-0.0091831056229041332 -0.0064536237106141122 0.0033328803724587148 0.0071622394912992608 0.0025747074340019497 0.0040743058032327983 0.0031314538077408961 -0.007774057200178504 0.0022010119195329026 -0.0028815444114364008 0.0095583452851158296 -4.81828176172372e-05 -0.0079409617104477456 0.0019345081595626352 -0.0046603994487668388 -0.0024675641101095137 0.0019322048505553261 -0.0063505787536269056 -0.0034253743668687681 -0.004597458146788456 -5.4978411879766595e-05 0.0010632823039070768 0.005662976466754282 0.001366571980077169 -0.0050883137000103801 0.0061610523163555912 0.003390902321552858 0.0017873917112294108 -0.0036868002089580514 -0.0017201529765451277 -0.00057725240484604698
leaf_count=23 27 21 32 31 33 44 25 124 22 29 128 31 24 32 27 26 30 31 27 234 70 22 57 24 26 36 39 22 74 89
internal_value=0 -0.0118908 0.0112258 0.00853779 -0.0092106 -0.0117351 -0.0228207 0.0182358 0.0321846 0.0396818 -0.00631655 -0.0185166 -0.0401005 -0.0183401 -0.0246079 -0.0104227 -0.0147771 0.000606227 -0.0130158 0.00449349 0.00625411 0.0216321 -0.00670049 -0.0160624 0.0288742 0.00706738 0.00046728 -0.00370909 -0.0077054 0.00237004
internal_count=1460 709 751 719 686 653 344 435 201 179 284 319 87 56 120 232 211 309 93 278 234 92 181 124 150 164 66 142 100 120
shrinkage=0.1


Tree=33
num_leaves=31
num_cat=0
split_feature=57 28 46 13 46 23 19 36 67 4 43 47 24 2 76 19 37 19 59 59 76 33 17 48 37 4 77 43 59 43
split_gain=0.161753 0.144202 0.0915401 0.0888614 0.166341 0.090786 0.0699501 0.0682066 0.0659234 0.0682046 0.056028 0.0456177 0.052081 0.0462388 0.0454147 0.0534165 0.0451602 0.038687 0.0332076 0.0323397 0.0319007 0.0394287 0.0356931 0.0318049 0.0341993 0.0406564 0.0300629 0.0441444 0.0309642 0.0314262
threshold=2.5000000000000004 2.5000000000000004 770.50000000000011 1.0000000180025095e-35 2779.5000000000005 4.5000000000000009 1910.5000000000002 535.50000000000011 52.500000000000007 14955.500000000002 1341.0000000000002 1.0000000180025095e-35 6.5000000000000009 2.5000000000000004 7.5000000000000009 1922.5000000000002 164.00000000000003 1968.5000000000002 1964.5000000000002 1949.5000000000002 4.5000000000000009 1.0000000180025095e-35 7.5000000000000009 1.0000000180025095e-35 291.50000000000006 8852.0000000000018 2008.5000000000002 1386.0000000000002 1951.5000000000002 1354.5000000000002
decision_type=2 2 2 2 2 2 2 2 2 2 2 2 2 2 2 2 2 2 10 10 2 2 2 2 2 2 2 2 8 2
left_child=1 -1 -3 4 7 10 -4 8 20 16 -5 12 13 14 15 -8 -10 18 -16 -13 21 -2 26 24 25 -17 28 -28 -22 -30
right_child=3 2 6 5 -6 -7 11 -9 9 -11 -12 19 -14 -15 17 23 -18 -19 -20 -21 22 -23 -24 -25 -26 -27 27 -29 29 -31
leaf_value=-0.0088285740890094774 0.0017876998693479793 -0.0062890069699717754 -0.0049768119132803648 -0.0022219148173462599 0.010056264007950878 -0.0069199827923439447 0.0039873880986124278 0.0069428370893001553 0.0059668955054472794 0.0070501039240129853 0.0033825162573096652 0.0041448251088149852 0.0030268791783601046 0.0020530259043192241 -0.0033087693634584097 -0.0016116357572307741 0.0011628568578079194 -0.0010893447916149287 -0.0083956181603882987 0.00035529375463378099 0.0035782518994176026 -0.0031703523322852015 0.0029493800864589439 0.0024045894539449367 -0.0010747553413528977 -0.0075602562434505666 8.1414836855169312e-05 -0.0053461109901863065 -0.00090372551889980547 0.0027322443978240094
leaf_count=23 23 29 34 44 22 25 20 20 22 27 30 25 30 37 33 27 177 37 21 227 33 53 54 20 160 20 47 22 85 33
internal_value=0 -0.0103399 -0.00784994 0.0107148 0.0151706 -0.0170998 -0.00554001 0.0120185 0.0100251 0.0233385 0.000501518 -0.00325119 -0.00982408 -0.0130315 -0.0167054 -0.00966966 0.0169396 -0.0358025 -0.0528699 0.00731239 0.00142848 -0.0166989 0.00645651 -0.0140347 -0.017714 -0.0414296 0.000801898 -0.016491 0.00870395 0.00113114
internal_count=1460 743 720 717 618 99 691 596 576 226 74 657 405 375 338 247 199 91 54 252 350 76 274 227 207 47 220 69 151 118
shrinkage=0.1


Tree=34
num_leaves=31
num_cat=0
split_feature=46 79 23 46 19 0 59 4 55 19 16 26 47 20 59 76 19 67 2 76 34 4 34 62 60 0 33 67 46 33
split_gain=0.140502 0.107934 0.102721 0.119019 0.0996222 0.0893801 0.0879431 0.0836003 0.0568714 0.0603686 0.0508457 0.0497507 0.0411433 0.0561448 0.0728665 0.0479085 0.0431922 0.0408884 0.0380951 0.0413372 0.0373568 0.0361943 0.0482188 0.0356738 0.035155 0.0305196 0.0275006 0.0270886 0.0285236 0.0257489
threshold=1144.5000000000002 1.0000000180025095e-35 8.5000000000000018 2611.0000000000005 1953.5000000000002 618.50000000000011 2007.5000000000002 25379.000000000004 1.0000000180025095e-35 1920.5000000000002 4.5000000000000009 47.000000000000007 1.0000000180025095e-35 1974.5000000000002 1961.5000000000002 4.5000000000000009 1952.5000000000002 26.500000000000004 1.0000000180025095e-35 6.5000000000000009 532.50000000000011 5846.5000000000009 127.00000000000001 845.00000000000011 1.0000000180025095e-35 1215.5000000000002 1.5000000000000002 21.500000000000004 993.00000000000011 3.5000000000000004
decision_type=2 2 2 2 2 2 10 2 2 2 2 10 2 2 10 2 2 2 2 2 2 2 2 2 2 2 2 2 2 2
left_child=1 10 3 6 -3 -5 7 8 9 18 21 -10 15 -14 -15 20 -17 -18 -2 -20 25 22 -1 -16 -8 -11 -23 28 29 -28
right_child=2 4 -4 5 -6 -7 24 -9 11 12 -12 -13 13 14 23 16 17 -19 19 -21 -22 26 -24 -25 -26 -27 27 -29 -30 -31
leaf_value=-0.0075590063282288608 0.00085405795058856411 -0.011220706546945233 -0.0063392727696780296 0.00067248318635392944 -0.0021768349434594337 0.0095644479993587522 0.0016776720215732764 0.0063842766791243448 -0.00076187903573736557 5.9087299658650797e-05 0.003769943204575351 -0.0063815641459887447 -0.0013105521311382322 0.0077776960562914617 0.001237940354000621 0.0029020887351538425 -0.0014914398855708157 0.00094575581488855805 -0.0013259856396381602 -0.0072156837845051836 -0.0057032143525429999 0.00034381488611025067 -0.001403829654362718 0.0053797165235585495 0.007178726763679432 -0.0043703334894962609 -0.0052185812739134283 0.0010565021482761949 -0.00032755728863689696 -0.0014533167116042023
leaf_count=20 24 21 21 20 29 26 21 22 50 70 21 23 58 21 217 66 107 193 26 22 20 114 35 23 26 20 42 28 42 32
internal_value=0 -0.0164212 0.00586037 0.00723886 -0.0597526 0.0569838 0.00497101 0.00290745 0.00148131 0.00373832 -0.0099345 -0.0253246 0.00624951 0.0150372 0.0212911 0.00036029 0.00586024 0.000764893 -0.0239893 -0.0402543 -0.0179395 -0.0131304 -0.0364208 0.0163486 0.0472081 -0.00925228 -0.00816539 -0.0173515 -0.02409 -0.0359036
internal_count=1460 384 1076 1055 50 46 1009 962 940 867 334 73 795 319 261 476 366 300 72 48 110 313 55 240 47 90 258 144 116 74
shrinkage=0.1


Tree=35
num_leaves=31
num_cat=0
split_feature=17 67 49 67 31 36 68 43 4 20 3 70 13 59 34 19 38 3 76 79 40 3 46 37 8 17 3 59 4 2
split_gain=0.121595 0.111936 0.161369 0.103892 0.081264 0.0623611 0.0532444 0.0700543 0.0521142 0.0537646 0.0468188 0.0441068 0.0366575 0.0413911 0.0491902 0.0621185 0.0463751 0.0394298 0.0393528 0.0487594 0.0812709 0.0372519 0.0361783 0.0331737 0.0320005 0.0316997 0.0299487 0.0290373 0.0262043 0.0376903
threshold=3.5000000000000004 264.00000000000006 2.5000000000000004 57.500000000000007 2.5000000000000004 554.00000000000011 169.50000000000003 980.50000000000011 14776.000000000002 1992.5000000000002 64.500000000000014 141.00000000000003 2.5000000000000004 1951.5000000000002 823.00000000000011 1969.5000000000002 711.00000000000011 64.500000000000014 11.500000000000002 1.0000000180025095e-35 3.5000000000000004 59.500000000000007 1312.0000000000002 154.50000000000003 1.0000000180025095e-35 5.5000000000000009 80.500000000000014 1948.5000000000002 7345.0000000000009 2.5000000000000004
decision_type=2 2 2 2 2 2 2 2 2 2 8 2 2 8 2 2 2 8 2 2 2 10 2 2 2 2 8 8 2 2
left_child=-1 2 3 4 10 6 11 -8 23 -10 -2 12 13 16 18 -16 -6 -17 19 24 -21 -14 -22 -5 25 -15 -13 -25 -29 -30
right_child=1 -3 -4 8 5 -7 7 -9 9 -11 -12 26 21 14 15 17 -18 -19 -20 20 22 -23 -24 27 -26 -27 -28 28 29 -31
leaf_value=-0.006914130561053753 -0.001943031051196158 -0.0073083979720831851 0.007360873367607353 0.0036434894315399494 -0.0022618253715336323 0.0043039291579244207 -0.0079800156643614183 -0.00021450545128363257 0.0008846891366622666 0.0076016174753861451 -0.0079155890803251951 0.00060683794347851563 -0.0062447226822509305 -0.0015480637621085131 -0.0022555499510663389 0.0059833333790302277 0.0031435408285604076 0.0013568078059480676 0.0030213423141200717 -0.0089304523728787905 -0.0046640648160643072 -0.00071440070199153935 0.00054029342170585607 0.0043300988874398171 -0.0039209761216248999 0.0002540292704751166 0.0053700743438887671 -0.0017697196040163809 0.00043376385471911161 0.0049687594396527861
leaf_count=25 35 20 31 42 21 29 21 26 22 26 21 33 21 165 37 25 65 70 24 20 22 29 34 20 29 239 22 47 219 20
internal_value=0 0.00120455 0.00225457 0.000656316 -0.00482887 -0.00260578 -0.00407168 -0.036842 0.0143416 0.0452303 -0.0418274 -0.00227237 -0.00415334 -0.0024078 -0.00507756 0.0122049 0.0182363 0.0257431 -0.00935764 -0.0112235 -0.0345853 -0.0303714 -0.0150428 0.0100811 -0.007123 -0.00481974 0.0251213 0.00646388 0.00388785 0.00813261
internal_count=1460 1435 1415 1384 988 932 903 47 396 48 56 856 801 751 665 132 86 95 533 509 76 50 56 348 433 404 55 306 286 239
shrinkage=0.1


Tree=36
num_leaves=31
num_cat=0
split_feature=46 70 66 13 12 19 28 38 59 59 49 10 33 12 65 46 20 59 67 3 19 43 59 79 62 0 18 38 37 58
split_gain=0.106893 0.0945794 0.0882656 0.0713603 0.0961438 0.0685353 0.0685243 0.0643662 0.0477681 0.0514183 0.0444102 0.0439323 0.0423914 0.0652964 0.0423044 0.0404023 0.0326805 0.0296106 0.0335169 0.0288835 0.0447854 0.0455643 0.0342104 0.0283743 0.0279643 0.0247732 0.0233397 0.0391408 0.0259251 0.0273693
threshold=749.50000000000011 141.00000000000003 158.50000000000003 1.0000000180025095e-35 7.5000000000000009 1910.5000000000002 2.5000000000000004 1844.5000000000002 1940.5000000000002 2007.5000000000002 1.5000000000000002 2.5000000000000004 1.5000000000000002 15.500000000000002 1.0000000180025095e-35 2050.0000000000005 1953.5000000000002 2004.5000000000002 128.50000000000003 77.500000000000014 1969.5000000000002 1004.5000000000001 1968.5000000000002 1.5000000000000002 424.50000000000006 174.50000000000003 5.5000000000000009 990.50000000000011 1377.5000000000002 1.0000000180025095e-35
decision_type=2 2 2 2 2 2 2 2 8 10 2 2 2 2 2 2 2 8 2 10 2 2 8 2 2 2 2 2 2 2
left_child=-1 2 5 7 -5 -2 -7 17 10 11 -8 12 16 14 26 -3 -10 18 25 20 21 -18 -21 -22 -15 -4 28 -28 29 -14
right_child=1 15 3 4 -6 6 8 -9 9 -11 -12 -13 13 24 -16 -17 19 -19 -20 22 23 -23 -24 -25 -26 -27 27 -29 -30 -31
leaf_value=-0.0064826621524989615 -0.0050238108769168751 0.0021188422256714799 0.0033254205889534207 0.0025930307438829913 -0.0067090885831275959 -0.0059659116335255523 0.0033849230344353827 0.006545923553407192 0.0037326188957584761 0.0035071317292749886 -0.0015507850775835462 0.0020682934470659226 -0.0011131506800455483 0.0029611385978856371 -0.0061808478636667143 0.0072152051026932902 -0.0003526583564682649 0.0031466130191571458 0.0044220735420189474 0.004892635901924223 -0.00058765615396737302 -0.0061177772142651399 9.6437604375312056e-05 0.0033219442813701575 -0.00095661658427811111 4.7838209609514761e-05 -0.00227937011004542 0.0014306254127617688 -0.0058375288992961452 -0.0038412503770086912
leaf_count=25 34 70 26 20 25 22 61 25 21 30 26 53 95 38 25 20 26 67 23 20 160 29 58 21 35 204 72 47 22 60
internal_value=0 0.00112938 -0.00097068 0.011706 -0.0257481 -0.00614753 -0.00451986 0.0165913 -0.00317051 -0.00555651 0.0190988 -0.00711513 -0.00913611 -0.0161676 -0.0223067 0.0325137 -0.0008662 0.0127735 0.00782323 -0.00342047 -0.00893427 -0.0339245 0.0132623 -0.00134056 0.0108276 0.00418348 -0.0189704 -0.00814078 -0.0262514 -0.0216919
internal_count=1460 1435 1345 390 45 955 921 345 899 812 87 782 729 394 321 90 335 320 253 314 236 55 78 181 73 230 296 119 177 155
shrinkage=0.1


Tree=37
num_leaves=31
num_cat=0
split_feature=18 56 59 18 20 19 38 12 16 62 46 12 4 58 41 34 34 4 16 34 17 62 76 26 12 62 43 46 46 58
split_gain=0.0940629 0.0919031 0.0679912 0.11632 0.0728526 0.0675357 0.155559 0.0657295 0.0585929 0.0465797 0.0407261 0.0370761 0.0451442 0.0341274 0.0427038 0.033814 0.0281336 0.0409103 0.0281197 0.026178 0.0262435 0.0400723 0.0257213 0.0284576 0.0247115 0.0236465 0.0308755 0.0259843 0.0226862 0.0250267
threshold=3.5000000000000004 1.5000000000000002 1994.5000000000002 6.5000000000000009 2002.5000000000002 1920.5000000000002 756.50000000000011 3.5000000000000004 1.0000000180025095e-35 901.00000000000011 1742.5000000000002 17.500000000000004 15281.000000000002 1.5000000000000002 1.0000000180025095e-35 218.50000000000003 571.00000000000011 5000.5000000000009 4.5000000000000009 1108.0000000000002 6.5000000000000009 540.50000000000011 3.5000000000000004 190.50000000000003 2.5000000000000004 503.00000000000006 722.50000000000011 1250.5000000000002 1252.5000000000002 1.0000000180025095e-35
decision_type=2 2 10 2 2 2 2 2 2 2 2 2 2 2 2 2 2 2 2 2 2 2 2 10 2 2 2 2 2 2
left_child=-1 2 3 4 5 6 -2 -3 -9 11 -10 12 15 14 19 22 -17 -18 24 20 28 -22 -4 -24 -5 26 -26 -27 29 -7
right_child=1 7 9 18 -6 13 -8 8 10 -11 -12 -13 -14 -15 -16 16 17 -19 -20 -21 21 -23 23 -25 25 27 -28 -29 -30 -31
leaf_value=-0.0054496419694905563 -0.011253529437817635 0.0071451150622494804 -0.0030651157504568496 0.0036986043211072687 -0.0074021021090447912 -0.00066702281032727725 0.00053170539904385812 -0.0027089496143162251 0.0011955358011352763 0.0054097619644987091 0.0064529276655420006 0.0036383132192281051 -0.0040728107623925263 -0.0046032982054991104 0.0025729411113489834 0.0032994759429869703 -0.0030617249472318993 0.0014164502780391452 0.0046208652556829514 0.0022755001327427831 -0.0010151463670707826 -0.0062903705867938704 -0.00057156290458532794 0.0025638639113969627 0.0031780621522794605 -0.00036920008618229381 -0.00079906774983608687 0.0042496306416257446 2.5194737717579559e-05 -0.0029590728221154665
leaf_count=31 21 27 30 26 20 120 24 24 41 21 23 37 22 24 36 59 24 136 21 23 36 24 133 37 23 21 129 29 159 79
internal_value=0 0.00118222 -0.00119025 -0.00681885 -0.0147428 -0.0125714 -0.0496807 0.0282902 0.0150477 0.00800275 0.0308491 0.00597766 0.00342664 -0.00923821 -0.0073869 0.00574502 0.0143299 0.00744724 0.0111929 -0.0100903 -0.0118976 -0.0312524 -0.00365542 0.00110854 0.00796778 0.00423276 -0.00197265 0.0230972 -0.00865373 -0.0157693
internal_count=1460 1429 1314 815 566 546 45 115 88 499 64 478 441 501 477 419 219 160 249 441 418 60 200 170 228 202 152 50 358 199
shrinkage=0.1


Tree=38
num_leaves=31
num_cat=0
split_feature=67 49 17 67 31 36 68 4 20 3 4 23 18 13 59 3 3 37 4 59 76 37 23 46 0 59 25 12 12 77
split_gain=0.0839418 0.122287 0.0816219 0.0672505 0.0559049 0.0489626 0.049662 0.0380585 0.0426739 0.0335701 0.0300625 0.0291959 0.043976 0.034901 0.0354459 0.0318023 0.0298567 0.0262032 0.0245656 0.022937 0.0217363 0.0263325 0.0303854 0.0301597 0.0317005 0.0339378 0.0295609 0.0280738 0.0276357 0.0255451
